# ------------------ Sp-PMF_RE ----------------
# INPUT TAG: DEMO-BIAS | param-file: ".params.txt"
# INPUT KbT: 0.59616108
# INPUT Ks: 2.9808054  (5.0000 KbT/[x]^2)
# INPUT fit-params => depth: -0.4, bias: 0.1, x_offset: 0.0, x_scale: 0.1, phi_offset: 0.0, phi_scale: 1.0
# -----------------------------------------------
X	SP	PMF_RE
-14.138661557646461	1.0	-3.8638852921719219562
-14.103461640609922	0.9999460789103105096	-3.8638346709061502577
-14.068261723573384	0.99989214866313069763	-3.8636601089481611801
-14.033061806536844	0.9998381959888612558	-3.8633393522777652867
-13.997861889500307	0.99978420768106912586	-3.8628732970407932109
-13.962661972463767	0.9997301705898010704	-3.8622628703906292725
-13.927462055427227	0.99967607161501659263	-3.8615090298437036713
-13.892262138390688	0.99962189770013720747	-3.8606127625877927451
-13.857062221354148	0.9995676358257078453	-3.8595750847694467475
-13.821862304317609	0.9995132730031636159	-3.8583970407731209972
-13.78666238728107	0.99945879626870393064	-3.8570797024718648984
-13.751462470244531	0.9994041926772626594	-3.8556241684645197697
-13.716262553207992	0.9993494492965780962	-3.8540315632856357714
-13.681062636171454	0.9992945532013528531	-3.8523030366234345065
-13.645862719134914	0.9992394914675052364	-3.8504397624916826392
-13.610662802098375	0.99918425116650555484	-3.8484429384251589278
-13.575462885061835	0.99912881935979658277	-3.8463137846343899572
-13.540262968025296	0.99907318309329296024	-3.8440535431640517694
-13.505063050988756	0.9990173293919583086	-3.8416634770413900545
-13.469863133952217	0.99896124525445617603	-3.839144869419842831
-13.434663216915679	0.9989049176478735914	-3.8364990227155192299
-13.39946329987914	0.9988483335025118981	-3.8337272577253783397
-13.364263382842601	0.998791479706745422	-3.8308309127739121904
-13.329063465806062	0.9987343431019427564	-3.8278113428237404772
-13.293863548769522	0.99867691047745221766	-3.8246699186171776977
-13.258663631732983	0.99861916856564381106	-3.8214080257823535452
-13.223463714696443	0.9985611040370097058	-3.8180270639789945114
-13.188263797659904	0.99850270349532133096	-3.8145284460155600976
-13.153063880623364	0.9984439534728357657	-3.810913596992235184
-13.117863963586826	0.9983848404255590836	-3.8071839534477813528
-13.082664046550287	0.9983253507285541062	-3.803340962479695461
-13.047464129513749	0.9982654706712980053	-3.7993860809304355712
-13.01226421247721	0.9982051864530868679	-3.795320774524340877
-12.97706429544067	0.99814448417848300465	-3.7911465170526650649
-12.94186437840413	0.9980833498528063341	-3.7868647895421322766
-12.90666446136759	0.9980217693776658461	-3.7824770794546328375
-12.871464544331051	0.9979597285465334755	-3.7779848798868516109
-12.836264627294513	0.9978972130403540586	-3.7733896887902767627
-12.801064710257974	0.997834208423195701	-3.768693008183212492
-12.765864793221434	0.9977707001379322316	-3.763896343411622705
-12.730664876184896	0.99770667350196651224	-3.7590012023961034645
-12.695464959148357	0.9976421137029815034	-3.7540090948896110018
-12.660265042111817	0.997577005794729188	-3.7489215317901454505
-12.625065125075277	0.99751133469285002686	-3.7437400244219697135
-12.589865208038738	0.9974450851707228338	-3.7384660838514476295
-12.554665291002198	0.99737824185534451615	-3.733101220234436593
-12.51946537396566	0.9973107892232430105	-3.727646942161163129
-12.484265456929121	0.9972427115964132005	-3.7221047560098589157
-12.449065539892583	0.99717399313828558594	-3.7164761653628922856
-12.413865622856044	0.9971046178497211532	-3.7107626703781107704
-12.378665705819504	0.99703456956503111464	-3.704965767229693219
-12.343465788782964	0.99696383194802595806	-3.6990869475424626935
-12.308265871746425	0.9968923884880883657	-3.6931276978408346884
-12.273065954709885	0.99682022249627066923	-3.6870894990343853277
-12.237866037673346	0.9967473171014206157	-3.680973825906488741
-12.202666120636808	0.9966736552463273391	-3.6747821466267177287
-12.167466203600268	0.9965992196838953099	-3.6685159222762147321
-12.13226628656373	0.9965239929733396007	-3.6621766064062946486
-12.097066369527191	0.99644795747640668715	-3.6557656445887941668
-12.061866452490651	0.99637109535361712	-3.6492844740178454806
-12.026666535454112	0.99629338856053428763	-3.6427345230968957797
-11.991466618417572	0.99621481884405216345	-3.6361172110619214793
-11.956266701381033	0.9961353677387106975	-3.6294339476267146749
-11.921066784344493	0.99605501656303230273	-3.6226861326257356706
-11.885866867307955	0.9959737464158807674	-3.615875155691090917
-11.850666950271416	0.9958915381728448146	-3.6090023959379268672
-11.815467033234878	0.99580837248264497674	-3.602069221678687535
-11.780267116198338	0.99572422976356300683	-3.5950769901282493438
-11.745067199161799	0.9956390901998953824	-3.588027047155839993
-11.70986728212526	0.9955529337384306787	-3.5809207270283353194
-11.67466736508872	0.99546574008495025687	-3.5737593521843987376
-11.63946744805218	0.99537748870075470897	-3.566544233016585279
-11.60426753101564	0.995288158799213063	-3.5592766676699948887
-11.569067613979103	0.99519772934233885486	-3.55195794185597865
-11.533867696942563	0.9951061790373888494	-3.5445893286710516616
-11.498667779906025	0.99501348633348962736	-3.5371720884557746299
-11.463467862869486	0.9949196294182899303	-3.529707468633255803
-11.428267945832946	0.99482458621463898396	-3.522196703581734121
-11.393068028796407	0.99472833437729035744	-3.5146410145159981623
-11.357868111759867	0.99463085128963724113	-3.5070416093816994029
-11.322668194723327	0.9945321140604715948	-3.499399682754725906
-11.28746827768679	0.9944320995207746039	-3.4917164157636013636
-11.25226836065025	0.9943307842205347802	-3.4839929760114160037
-11.21706844361371	0.99422814442559759307	-3.4762305175212300085
-11.181868526577173	0.9941241561145436334	-3.468430180679056296
-11.146668609540633	0.9940187949755989738	-3.4605930921955308157
-11.111468692504094	0.99391203640357839166	-3.452720365078911479
-11.076268775467554	0.99380385549685901214	-3.4448130986068208447
-11.041068858431014	0.9936942270543890343	-3.4368723783196130984
-11.005868941394477	0.99358312557273020804	-3.4288992760177063475
-10.970669024357937	0.9934705252431352829	-3.4208948497584031057
-10.935469107321397	0.99335639994866020697	-3.4128601438805865052
-10.900269190284858	0.9932407232613156278	-3.4047961890215838845
-10.865069273248318	0.99312346843925380924	-3.3967040021394384094
-10.82986935621178	0.9930046084239930737	-3.3885845865580125633
-10.794669439175241	0.9928841158376855436	-3.3804389320032441455
-10.759469522138701	0.99276196298042096444	-3.3722680146553348165
-10.724269605102162	0.99263812182757471536	-3.3640727972026185722
-10.689069688065624	0.9925125640271968974	-3.3558542289018294938
-10.653869771029084	0.9923852608974440548	-3.3476132456454397034
-10.618669853992545	0.9922561834240584133	-3.3393507700370315186
-10.583469936956005	0.9921253022578881975	-3.3310677114600100116
-10.548270019919467	0.9919925877124573521	-3.3227649661686156953
-10.513070102882928	0.99185800976158233766	-3.3144434173665813458
-10.477870185846388	0.99172153803703699815	-3.306103935304743847
-10.442670268809849	0.9915831418262683883	-3.2977473773684167165
-10.40747035177331	0.9914427900701612284	-3.289374588181206272
-10.372270434736771	0.9913004513608587587	-3.2809863997046114332
-10.337070517700232	0.99115609393963099993	-3.2725836313392153753
-10.301870600663692	0.99100968569480363257	-3.264167090042025947
-10.266670683627153	0.99086119415973827884	-3.2557375704279386808
-10.231470766590615	0.99071058651087162694	-3.247295854888870618
-10.196270849554075	0.99055782956581195364	-3.238842713707444274
-10.161070932517536	0.9904028897814969312	-3.2303789051762847688
-10.125871015480996	0.9902457332524081668	-3.2219051757178598404
-10.090671098444457	0.99008632570885346524	-3.2134222600064946823
-10.055471181407919	0.9899246325153059356	-3.2049308810925731038
-10.02027126437138	0.9897606186688135965	-3.1964317505265621101
-9.98507134733484	0.98959424879747026615	-3.1879255684888262831
-9.9498714302983	0.98942548715895728417	-3.1794130239149443673
-9.914671513261762	0.989254297639150848	-3.1708947946254557287
-9.879471596225223	0.98908064375080095854	-3.1623715474547107822
-9.844271679188683	0.98890448863228141985	-3.1538439383851310743
-9.809071762152143	0.98872579504641200376	-3.1453126126747870618
-9.773871845115604	0.98854452537935477707	-3.1367782049910196908
-9.738671928079066	0.988360641639585924	-3.1282413395429088468
-9.703472011042527	0.9881741054569435079	-3.1197026302121303083
-9.668272094005987	0.987984878081755058	-3.111162680690330475
-9.633072176969447	0.98779292038404309384	-3.1026220846062660542
-9.59787225993291	0.98759819285281158496	-3.094081425662065065
-9.56267234289637	0.9874006555954151221	-3.085541277765071205
-9.52747242585983	0.98720026833701290947	-3.0770022051624282904
-9.49227250882329	0.9869969904201053579	-3.0684647625695260667
-9.457072591786753	0.9867907808041591622	-3.0599294953060688009
-9.421872674750214	0.9865815980653194206	-3.051396939422982657
-9.386672757713674	0.9863694003962109047	-3.0428676218382390728
-9.351472840677134	0.98615414560583081194	-3.0343420604640872222
-9.316272923640595	0.98593579111953255634	-3.0258207643384053783
-9.281073006604057	0.98571429397910459436	-3.0173042337528119933
-9.245873089567517	0.9854896108429411772	-3.008792960379932967
-9.210673172530978	0.9852616979863135782	-3.0002874274039065356
-9.175473255494438	0.98503051130173435723	-2.9917881096439762063
-9.1402733384579	0.9847960062994250974	-2.983295473683084338
-9.105073421421361	0.9845581381078807315	-2.9748099779882549779
-9.069873504384821	0.98431686147453822944	-2.9663320730389261739
-9.034673587348282	0.98407213076654675987	-2.9578622014467653683
-8.999473670311742	0.98382389997164365614	-2.9494007980787073718
-8.964273753275204	0.98357212269913540936	-2.9409482901773349216
-8.929073836238665	0.98331675218098579805	-2.9325050974773039744
-8.893873919202125	0.98305774127301204235	-2.9240716323288205819
-8.858674002165586	0.98279504245619297986	-2.9156482998097171674
-8.823474085129048	0.98252860783808393386	-2.9072354978454658895
-8.788274168092508	0.98225838915435037535	-2.898833617319825725
-8.753074251055969	0.9819843377704075005	-2.890443042189697881
-8.71787433401943	0.9817064046831810442	-2.8820641495988202397
-8.682674416982891	0.98142454052298144784	-2.8736973099865298813
-8.647474499946352	0.9811386955554947109	-2.8653428871965569411
-8.612274582909812	0.98084881968389392437	-2.8570012385879716697
-8.577074665873273	0.9805548624510683764	-2.848672715139174775
-8.541874748836733	0.9802567730419748937	-2.8403576615552912567
-8.506674831800195	0.9799545002861110854	-2.8320564163713423768
-8.471474914763656	0.9796479926601101562	-2.8237693120544499724
-8.436274997727116	0.97933719829046295136	-2.815496675107476067
-8.401075080690577	0.97902206495636190375	-2.8072388261666909968
-8.365875163654039	0.9787025400926743224	-2.7989960801034447382
-8.3306752466175	0.9783785707930415798	-2.7907687461173189879
-8.29547532958096	0.9780501038131058644	-2.7825571278361440424
-8.26027541254442	0.9777170855738687161	-2.7743615234097713151
-8.22507549550788	0.97737946216517845865	-2.7661822256017466008
-8.189875578471343	0.9770371793493478618	-2.7580195218836299977
-8.154675661434803	0.97669018256490680585	-2.7498736945235130206
-8.119475744398263	0.97633841693048473154	-2.741745020677780916
-8.084275827361724	0.9759818272488303137	-2.733633772477301556
-8.049075910325186	0.975620358010962363	-2.725540217115037243
-8.013875993288647	0.97525395340045906156	-2.717464616930516035
-7.978676076252107	0.9748825572978815357	-2.7094072294959453974
-7.943476159215567	0.9745061132853359842	-2.701368307696752908
-7.908276242179028	0.97412456465117081006	-2.6933480998143238293
-7.87307632514249	0.97373785439481541637	-2.6853468496070758982
-7.83787640810595	0.9733459252317546717	-2.6773647963868536848
-7.802676491069411	0.97294871959864459576	-2.6694021750993700737
-7.767476574032871	0.97254617965856693385	-2.6614592163995894134
-7.7322766569963335	0.972138247306425729	-2.653536146727345639
-7.697076739959794	0.9717248641744820059	-2.645633188379670695
-7.661876822923254	0.9713059716380322284	-2.6377505595871840137
-7.626676905886715	0.97088151082122808866	-2.629888474582415793
-7.591476988850177	0.9704514226030359625	-2.622047143671406185
-7.556277071813637	0.9700156476233408043	-2.6142267733035458321
-7.521077154777098	0.96957412628919326103	-2.6064275661394294074
-7.485877237740558	0.9691267987811956752	-2.5986497211171802279
-7.450677320704019	0.96867360506003552523	-2.5908934335187375421
-7.415477403667481	0.96821448487315719955	-2.583158895035676168
-7.380277486630941	0.9677493777615822079	-2.5754462938306354172
-7.345077569594402	0.9672782230668656167	-2.5677558146014230387
-7.309877652557862	0.96680095993820192035	-2.5600876386424378391
-7.274677735521324	0.9663175273396692466	-2.552441943904637324
-7.239477818484785	0.96582786405761855697	-2.5448189050543481569
-7.204277901448245	0.9653319087082044003	-2.5372186935332728635
-7.169077984411706	0.9648295997450591077	-2.5296414776139777418
-7.133878067375166	0.96432087546710676396	-2.522087422456700667
-7.098678150338628	0.9638056740265213973	-2.5145566901658131433
-7.063478233302089	0.96328393343682516825	-2.507049439842103551
-7.028278316265549	0.9627555915811273346	-2.4995658276382082194
-6.9930783992290095	0.9622205862205046589	-2.4921060068088181432
-6.957878482192472	0.96167885500251870656	-2.4846701277642565923
-6.922678565155932	0.9611303354698774726	-2.4772583381195254202
-6.887478648119393	0.96057496506923001345	-2.4698707827443542994
-6.852278731082853	0.9600126811601026322	-2.462507603812385402
-6.817078814046315	0.9594434210239712879	-2.4551689408480644274
-6.781878897009776	0.958867121873467787	-2.4478549307740697998
-6.746678979973236	0.95828372086172686206	-2.4405657079583306557
-6.7114790629366965	0.95769315509186137003	-2.4333014042571687685
-6.676279145900157	0.9570953616265749364	-2.426062149061790892
-6.641079228863619	0.95649027749790649366	-2.4188480693410494048
-6.6058793118270795	0.95587783971710416075	-2.4116592896835375574
-6.57067939479054	0.95525798528463179426	-2.4044959323410528336
-6.535479477754	0.954630651200302216	-2.3973581172686487667
-6.500279560717463	0.95399577447353978155	-2.3902459621659347614
-6.465079643680923	0.9533532921337676269	-2.3831595825157183808
-6.4298797266443835	0.9527031412409212585	-2.376099091624452939
-6.394679809607844	0.95204525889608460076	-2.3690646006590349352
-6.359479892571304	0.9513795822522475021	-2.3620562186850763966
-6.3242799755347665	0.95070604852518503236	-2.3550740527040786465
-6.289080058498227	0.95002459500445390894	-2.3481182076882423629
-6.253880141461687	0.94933515906450649524	-2.3411887866170392656
-6.218680224425148	0.94863767817591926335	-2.3342858905121303744
-6.18348030738861	0.947932089916737608	-2.3274096184708530435
-6.14828039035207	0.94721833198392613173	-2.3205600676987210322
-6.113080473315531	0.94649634220493428227	-2.313737333545294233
-6.077880556278991	0.94576605854936834916	-2.3069415095330122675
-6.0426806392424535	0.9450274191407639357	-2.3001726873906657097
-6.007480722205914	0.94428036226846967516	-2.2934309570841150032
-5.972280805169374	0.94352482639962576005	-2.286716406846332604
-5.937080888132835	0.9427607501912442789	-2.2800291232071116362
-5.901880971096295	0.941988072502384699	-2.273369191023088538
-5.866681054059757	0.94120673240642660495	-2.266736693505822313
-5.831481137023218	0.9404166692034289232	-2.2601317122493437381
-5.796281219986678	0.93961782243258440417	-2.2535543272590568816
-5.761081302950139	0.93881013188475592735	-2.2470046169776278471
-5.725881385913601	0.9379935376151008475	-2.2404826583123995457
-5.690681468877061	0.9371679799557739443	-2.2339885266602655164
-5.655481551840522	0.9363333995287113076	-2.227522295934397808
-5.620281634803982	0.93548973725848905136	-2.2210840385886087634
-5.5850817177674426	0.9346369343852565237	-2.2146738256416699392
-5.549881800730905	0.9337749324777376847	-2.2082917267017784378
-5.514681883694365	0.9329036734463025393	-2.2019378099896803067
-5.479481966657826	0.93202309955610129766	-2.1956121423624095715
-5.444282049621286	0.93113315344026104103	-2.1893147893352313661
-5.409082132584748	0.9302337781131394534	-2.1830458151044116067
-5.373882215548209	0.9293249169836351742	-2.1768052825682693613
-5.338682298511669	0.92840651386854877725	-2.1705932533494043735
-5.3034823814751295	0.927478513005994043	-2.164409787814756257
-5.26828246443859	0.92654085906885219615	-2.1582549450968632654
-5.233082547402052	0.9255934971782726617	-2.1521287831135529386
-5.197882630365513	0.9246363729172060175	-2.1460313585868718645
-5.162682713328973	0.92366943234397835827	-2.139962727064229125
-5.127482796292433	0.92269262200589463596	-2.1339229429355178465
-5.092282879255896	0.92170588895286909015	-2.127912059452705734
-5.057082962219356	0.92070918075108332257	-2.1219301287473922467
-5.0218830451828165	0.9197024454966625795	-2.115977201848987259
-4.986683128146277	0.91868563182937090783	-2.110053328702115409
-4.951483211109739	0.917658688946320078	-2.1041585581834158286
-4.9162832940731995	0.91662156661568572336	-2.0982929381183847406
-4.88108337703666	0.9155742151904346926	-2.0924565152982483533
-4.84588346000012	0.9145165856220486278	-2.0866493354952172553
-4.810683542963581	0.9134486294742506507	-2.0808714434789971706
-4.775483625927043	0.91237029893672405567	-2.0751228830316975373
-4.740283708890503	0.91128154683882123255	-2.0694036969630068192
-4.705083791853964	0.9101823266632617093	-2.063713927125425882
-4.669883874817424	0.90907259255980921164	-2.058053614428028578
-4.6346839577808865	0.9079522993589297375	-2.0524227988515353679
-4.599484040744347	0.90682140258542320854	-2.046821519461253133
-4.564284123707807	0.9056798584720248124	-2.0412498144214002499
-4.529084206671268	0.90452762397297326036	-2.035707721008407497
-4.493884289634728	0.9033646567775417413	-2.0301952756234669187
-4.45868437259819	0.90219091532352369	-2.0247125138059507055
-4.423484455561651	0.90100635881067669963	-2.0192594702453501492
-4.388284538525111	0.89981094721411114534	-2.013836178793907823
-4.353084621488572	0.89860464129762762653	-2.0084426724784845328
-4.317884704452034	0.8973874026269927917	-2.0030789835125799995
-4.282684787415494	0.8961591935831538791	-1.9977451433070790107
-4.247484870378955	0.894919977375382536	-1.9924411824823415839
-4.212284953342415	0.8936697180543505814	-1.9871671308788125155
-4.177085036305877	0.8924083805251254997	-1.9819230175679012224
-4.141885119269338	0.89113593056008810755	-1.9767088708623991786
-4.106685202232798	0.8898523348117639564	-1.9715247183268537685
-4.071485285196259	0.88855756082556436315	-1.9663705867876967035
-4.036285368159719	0.887251577052436291	-1.9612465023431672724
-4.001085451123181	0.8859343528614114227	-1.9561524903729286476
-3.9658855340866417	0.8846058585520543138	-1.9510885755472793738
-3.930685617050102	0.88326606536680318804	-1.9460547818368945002
-3.8954857000135625	0.8819149455031998208	-1.9410511325213397889
-3.8602857829770247	0.8805524721260028498	-1.9360776501983190353
-3.825085865940485	0.87917861937918251325	-1.9311343567919064297
-3.7898859489039456	0.8777933623977900446	-1.9262212735612133362
-3.754686031867406	0.87639667731969805864	-1.9213384211089637402
-3.7194861148308664	0.87498854129721126416	-1.9164858193888676902
-3.6842861977943286	0.8735689325085330692	-1.9116634877137736966
-3.649086280757789	0.8721378301690976276	-1.9068714447636685224
-3.6138863637212495	0.8706952145427524492	-1.9021097085929545279
-3.57868644668471	0.8692410669527907974	-1.8973782966375883725
-3.543486529648172	0.867775369792830209	-1.8926772257227299308
-3.5082866126116325	0.8662981065375325862	-1.8880065120690776497
-3.473086695575093	0.8648092617531599746	-1.8833661713003435164
-3.4378867785385534	0.8633088211079653629	-1.8787562184497178394
-3.4026868615020156	0.8617967713824106202	-1.8741766679662016658
-3.367486944465476	0.86027310047920824143	-1.8696275337208309792
-3.3322870274289365	0.85873779743318578994	-1.8651088290135965284
-3.297087110392397	0.8571908524209658209	-1.8606205665787235982
-3.2618871933558573	0.85563225677045651185	-1.8561627585907168807
-3.2266872763193195	0.8540620029701527782	-1.8517354166703510504
-3.19148735928278	0.85248008467823988	-1.8473385518899097299
-3.156287442246242	0.85088649673149974184	-1.8429721747792152495
-3.1210875252097026	0.8492812351540112159	-1.8386362953301658312
-3.085887608173163	0.8476642971656449532	-1.8343309230023574297
-3.0506876911366234	0.84603568119034489037	-1.8300560667280753596
-3.015487774100084	0.84439538686419823854	-1.8258117349172712022
-2.9802878570635443	0.84274341504328353913	-1.8215979354618181331
-2.9450879400270047	0.8410797678112970077	-1.8174146757407818111
-2.909888022990465	0.83940444848695594526	-1.8132619626246396989
-2.8746881059539255	0.83771746163116822537	-1.8091398024794006516
-2.8394881889173895	0.83601881305397207633	-1.8050482011712174933
-2.80428827188085	0.83430850982123749837	-1.8009871640703846667
-2.7690883548443104	0.8325865602611303151	-1.796956696055249203
-2.733888437807771	0.83085297397032986666	-1.7929568015160149569
-2.6986885207712312	0.8291077618200025645	-1.7889874843588953546
-2.6634886037346917	0.8273509359615265346	-1.7850487480093188721
-2.628288686698152	0.82558250983196024286	-1.7811405954154542695
-2.5930887696616125	0.823802498159258656	-1.7772630290519475158
-2.557888852625073	0.82201091696722927704	-1.7734160509229174994
-2.522688935588537	0.8202077835802262795	-1.769599662565370213
-2.4874890185519973	0.8183931166275808522	-1.7658138650519814516
-2.4522891015154578	0.8165669360477628702	-1.7620586589941792697
-2.417089184478918	0.81472926309227422514	-1.7583340445452379325
-2.3818892674423786	0.8128801203292685962	-1.7546400214027428508
-2.346689350405839	0.8110195316468957749	-1.750976588811180563
-2.3114894333692995	0.8091475222563679903	-1.7473437455646975302
-2.27628951633276	0.8072641186947477898	-1.7437414900094396138
-2.2410895992962203	0.8053693488274512591	-1.7401698200459852512
-2.2058896822596843	0.80346324185046968935	-1.7366287331313817921
-2.1706897652231447	0.8015458282922992561	-1.7331182262814009928
-2.135489848186605	0.7996171400155890341	-1.7296382960727126286
-2.1002899311500656	0.7976772102184915836	-1.7261889386444810023
-2.065090014113526	0.79572607343572454575	-1.7227701497006158272
-2.0298900970769864	0.7937637655393373626	-1.7193819245112589657
-1.9946901800404468	0.79179032373918034615	-1.7160242579145240983
-1.9594902630039073	0.78980578658307798445	-1.712697144318093358
-1.9242903459673713	0.78781019395670137673	-1.7094005777006466959
-1.8890904289308317	0.78580358708314035354	-1.7061345516132888804
-1.853890511894292	0.7837860085221747264	-1.7028990591808881094
-1.8186905948577525	0.78175750216924111413	-1.6996940931030821041
-1.783490677821213	0.77971811325409445814	-1.6965196456556269865
-1.7482907607846734	0.7776678883391673347	-1.6933757086913890417
-1.7130908437481338	0.77560687531761929314	-1.6902622736411425906
-1.6778909267115942	0.77353512341108165984	-1.6871793315146063175
-1.6426910096750547	0.771452683167093034	-1.6841268729011386729
-1.6074910926385186	0.76935960645622736287	-1.6811048879704133357
-1.572291175601979	0.76725594646891082107	-1.6781133664730025607
-1.5370912585654395	0.76514175771193249087	-1.6751522977409760471
-1.5018913415289	0.7630170960046421813	-1.6722216706883575881
-1.4666914244923603	0.7608820184748406046	-1.6693214738113743332
-1.4314915074558208	0.7587365835543570247	-1.6664516951887291742
-1.3962915904192812	0.7565808509743189303	-1.663612322481937168
-1.3610916733827416	0.7544148817601105117	-1.6608033429353690131
-1.325891756346202	0.7522387382260219413	-1.6580247433762209943
-1.290691839309666	0.7500524839695882351	-1.6552765102144890167
-1.2554919222731264	0.7478561838656190286	-1.6525586294428898552
-1.2202920052365869	0.7456499040599213757	-1.649871086636740165
-1.1850920882000473	0.74343371196271323953	-1.6472138669534686467
-1.1498921711635077	0.7412076762417286746	-1.644586955132321615
-1.1146922541269682	0.7389718668150189185	-1.6419903354940759953
-1.0794923370904286	0.73672635484344661805	-1.6394239919403056987
-1.044292420053889	0.7344712127228754106	-1.6368879079529586604
-1.0090925030173494	0.7322065140760577462	-1.6343820665936336714
-0.9738925859808134	0.729932333744219064	-1.6319064505027316696
-0.9386926689442738	0.72764874777834120945	-1.6294610418987776406
-0.9034927519077343	0.72535583343014931046	-1.6270458225774690828
-0.8682928348711947	0.72305366914279778356	-1.6246607739106366252
-0.8330929178346551	0.72074233454126235277	-1.6223058768453009426
-0.7978930007981155	0.71842191042243774834	-1.6199811119025536007
-0.762693083761576	0.716092478744943306	-1.6176864591761630787
-0.7274931667250364	0.7137541226186367993	-1.6154218983314771182
-0.6922932496884968	0.71140692629384316703	-1.6131874086041313789
-0.6570933326519608	0.70905097515029513744	-1.610982968798357762
-0.6218934156154212	0.70668635568578941353	-1.6088085572857044183
-0.5866934985788816	0.7043131555045657466	-1.6066641520034383942
-0.5514935815423421	0.7019314633054029029	-1.6045497304527470709
-0.5162936645058025	0.6995413688694409604	-1.6024652696972068545
-0.4810937474692629	0.6971429630477303796	-1.6004107463608281668
-0.44589383043272335	0.69473633774850906963	-1.5983861366262131512
-0.4106939133961838	0.69232158592421366716	-1.5963914162326744571
-0.3754939963596442	0.6898988015582250277	-1.5944265604741087254
-0.3402940793231082	0.68746807965135292573	-1.5924915441970031775
-0.3050941622865686	0.68502951620806162847	-1.5905863417981072066
-0.26989424525002903	0.682583208222441562	-1.5887109272223067233
-0.23469432821348946	0.68012925366392906756	-1.5868652739602829114
-0.19949441117694988	0.67766775146277724584	-1.5850493550460470928
-0.1642944941404103	0.6751988014952834405	-1.5832631430544691746
-0.12909457710387073	0.6727225045687744709	-1.5815066100987739667
-0.09389466006733116	0.6702389624063564977	-1.5797797278278860436
-0.05869474303079514	0.66774827763142985404	-1.5780824674237310717
-0.023494825994255564	0.66525055375197517105	-1.576414799598378174
0.01170509104228401	0.6627458951446142388	-1.5747766945912242247
0.046905008078823585	0.66023440703844948896	-1.5731681221661629115
0.08210492511536316	0.6577161954986862069	-1.5715890516084202938
0.11730484215190273	0.65519136741004158075	-1.5700394517214511178
0.1525047591884423	0.6526600304599450286	-1.5685192908238936814
0.18770467622498188	0.6501222931215354661	-1.5670285367462781146
0.22290459326152146	0.6475782646364572903	-1.5655671568276109928
0.2581045102980575	0.64502805499746218576	-1.5641351179120513322
0.29330442733459705	0.6424717749308188619	-1.5627323863454545813
0.3285043443711366	0.6399095358785400478	-1.5613589279717322238
0.3637042614076762	0.6373414499804241906	-1.5600147081292141368
0.3989041784442158	0.63476763005592384825	-1.5586996916469364697
0.43410409548075535	0.63218818958584055423	-1.5574138428408794706
0.4693040125172949	0.6296032426938552584	-1.5561571255100774166
0.5045039295538345	0.62701290412789500994	-1.554929502932513357
0.5397038465903741	0.62441728924134409784	-1.5537309378612523526
0.5749037636269101	0.62181651397410464543	-1.5525613925202247935
0.6101036806634497	0.61921069483350821283	-1.5514208285999902581
0.6453035976999892	0.61659994887509039785	-1.5503092072534750759
0.6805035147365288	0.6139843936832256599	-1.5492264890915571723
0.7157034317730684	0.61136414735163424616	-1.5481726341786441893
0.750903348809608	0.6087393284637627744	-1.5471476020280802411
0.7861032658461475	0.60611005607304568876	-1.5461513515975200349
0.8213031828826871	0.6034764496830519187	-1.5451838412842130638
0.8565030999192267	0.60083862922752329094	-1.5442450289201825427
0.8917030169557627	0.59819671505030924674	-1.5433348717673316615
0.9269029339923023	0.59555082788520308235	-1.5424533265124480567
0.9621028510288419	0.59290108883568815035	-1.5416003492621460317
0.9973027680653814	0.5902476193545952432	-1.540775895537692847
1.032502685101921	0.5875905412236800407	-1.5399799202697325394
1.0677026021384606	0.58492997653312506223	-1.539212377792994635
1.1029025191750002	0.58226604766097245225	-1.5384732218408260864
1.1381024362115397	0.5795988772524921506	-1.5377624055396325995
1.1733023532480793	0.5769285881994923315	-1.537079881403329758
1.2085022702846153	0.5742553036195778837	-1.5364256013276059709
1.243702187321155	0.57157914683536037437	-1.5357995165840696788
1.2789021043576945	0.5689002413536300429	-1.5352015778143752475
1.314102021394234	0.56621871084448971434	-1.5346317350242704288
1.3493019384307736	0.56353467912046151245	-1.5340899375774515368
1.3845018554673132	0.5608482701155683703	-1.533576134189373644
1.4197017725038528	0.5581596078643991099	-1.533090272921017766
1.4549016895403923	0.55546881648116064323	-1.5326323011724585784
1.490101606576932	0.5527760201387243999	-1.5322021656763616372
1.525301523613468	0.55008134304767197786	-1.5317998124914409289
1.5605014406500075	0.547384909435345679	-1.5314251869957540108
1.595701357686547	0.54468684352491192335	-1.5310782338799333212
1.6309012747230867	0.5419872695144396513	-1.5307588971403181901
1.6661011917596262	0.5392863115560021514	-1.5304671200718600932
1.7013011087961658	0.5365840937348064221	-1.5302028452610670554
1.7365010258327054	0.53388074004835739395	-1.5299660145789550123
1.771700942869245	0.5311763743856623421	-1.5297565691735180502
1.806900859905781	0.52847112050647837567	-1.5295744494624018886
1.8421007769423206	0.52576510202061277344	-1.5294195951254292631
1.8773006939788601	0.523058442367279941	-1.5292919450969188392
1.9125006110153997	0.52035126479451976333	-1.529191437557892785
1.9477005280519393	0.5176436923386826816	-1.5291180099283625608
1.9829004450884788	0.5149358478039911535	-1.5290715988593171698
2.0181003621250184	0.51222785374217583154	-1.5290521402244584465
2.053300279161558	0.50951983243219800546	-1.5290595691122944439
2.0885001961980976	0.50681190586006186205	-1.5290938198177491726
2.1237001132346336	0.5041041956987206696	-1.5291548258336333548
2.158900030271173	0.50139682328808177214	-1.5292425198422118441
2.1940999473077127	0.4986899096151206634	-1.5293568337065171332
2.2292998643442523	0.49598357529410136424	-1.5294976984616221521
2.264499781380792	0.4932779405469159273	-1.5296650443057324153
2.2996996984173315	0.49057312518354218023	-1.5298588005911006413
2.334899615453871	0.48786924858262892268	-1.5300788958150686019
2.3700995324904106	0.4851664296722119074	-1.5303252576106347658
2.40529944952695	0.4824647869105639919	-1.5305978127371588915
2.440499366563486	0.47976443826718850882	-1.5308964870709337956
2.475699283600026	0.47706550120395496695	-1.5312212055954198974
2.5108992006365654	0.4743680926563882405	-1.5315718923915743384
2.546099117673105	0.47167232901510980358	-1.5319484706280187345
2.5812990347096445	0.46897832610744039084	-1.5323508625509492851
2.616498951746184	0.46628619917916491744	-1.532778989474066514
2.6516988687827237	0.4635960628764678737	-1.5332327717682262878
2.6868987858192632	0.46090803122803875036	-1.5337121288511146178
2.722098702855803	0.45822221762735804163	-1.5342169791768084177
2.757298619892339	0.45553873481516227173	-1.5347472402249026962
2.7924985369288784	0.45285769486209387358	-1.5353028284898312993
2.827698453965418	0.45017920915154391315	-1.535883659470006762
2.8628983710019575	0.44750338836268566123	-1.5364896476566327566
2.898098288038497	0.44483034245370617343	-1.5371207065225949066
2.9332982050750367	0.44216018064524065245	-1.5377767485110380373
2.9684981221115763	0.43949301140400953702	-1.5384576850239139755
3.003698039148116	0.43682894242666703288	-1.539163426410430415
3.0388979561846554	0.43416808062385997546	-1.5398938819551836549
3.0740978732211914	0.43151053210450390774	-1.5406489598663303663
3.109297790257731	0.42885640216027659521	-1.5414285672634957658
3.1444977072942706	0.42620579525033697177	-1.5422326101656439115
3.17969762433081	0.42355881498626735127	-1.5430609934786698743
3.2148975413673497	0.42091556411724517783	-1.5439136209829396378
3.2500974584038893	0.41827614451544725682	-1.5447903953207003091
3.285297375440429	0.41564065716168835385	-1.5456912179832890537
3.3204972924769685	0.41300920213129782566	-1.5466159892981716447
3.355697209513508	0.41038187858023600363	-1.5475646084159014222
3.390897126550044	0.4077587847314548819	-1.5485369732969371454
3.4260970435865836	0.40514001786150244389	-1.5495329806981408577
3.461296960623123	0.40252567428737734412	-1.5505525261593921782
3.4964968776596628	0.39991584935363277964	-1.5515955039898804505
3.5316967946962023	0.3973106374197327706	-1.5526618072541546473
3.566896711732742	0.39471013184766345905	-1.5537513277582876624
3.6020966287692815	0.3921144249898020906	-1.5548639560356805716
3.637296545805821	0.38952360817704345664	-1.5559995813327111223
3.672496462842357	0.3869377717071880718	-1.5571580915943535064
3.7076963798788967	0.38435700483359114266	-1.5583393734495469306
3.7428962969154362	0.38178139575407832318	-1.5595433121964208053
3.778096213951976	0.37921103160012398225	-1.5607697917873453403
3.8132961309885154	0.37664599842629803428	-1.5620186948138816678
3.848496048025055	0.37408638119998072202	-1.5632899024915326789
3.8836959650615945	0.37153226379134690616	-1.5645832946443366946
3.918895882098134	0.3689837289636209161	-1.5658987496892990436
3.9540957991346737	0.366440858363603017	-1.567236144620635229
3.9892957161712097	0.36390373251246838082	-1.5685953549939515289
4.024495633207749	0.3613724307968388949	-1.5699762549101660653
4.059695550244289	0.35884703146013058328	-1.5713787169992625295
4.094895467280828	0.35632761159417358776	-1.572802612403993798
4.130095384317368	0.35381424713110876112	-1.5742478107633019722
4.165295301353908	0.35130701283555881842	-1.5757141801956091922
4.200495218390447	0.3488059822970758228	-1.5772015872820200297
4.235695135426987	0.3463112279228645618	-1.5787098970492719561
4.270895052463526	0.34382282093078175844	-1.5802389729525060998
4.306094969500062	0.3413408313426113394	-1.5817886768580160349
4.341294886536602	0.33886532797761526048	-1.5833588690256913218
4.3764948035731415	0.33639637844636122166	-1.5849494080913369726
4.411694720609681	0.33393404914482421875	-1.5865601510488992645
4.446894637646221	0.33147840524876376334	-1.5881909532324250087
4.48209455468276	0.32902951070837521685	-1.5898416682979649694
4.5172944717193	0.3265874282432152942	-1.5915121482052033652
4.552494388755839	0.32415221933739962745	-1.5932022431990223015
4.587694305792379	0.3217239442350737222	-1.5949118017909150539
4.622894222828915	0.3193026619361545304	-1.5966406707401516803
4.6580941398654545	0.3168884301923414748	-1.5983886950348184426
4.693294056901994	0.31448130550339853384	-1.6001557178727817227
4.728493973938534	0.31208134311370266945	-1.6019415806424254936
4.763693890975073	0.30968859700905920773	-1.6037461229031685542
4.798893808011613	0.30730311991378239656	-1.605569182366024284
4.834093725048152	0.30492496328804041816	-1.6074105948738168465
4.869293642084692	0.30255417732546119325	-1.6092701943812997455
4.9044935591212315	0.30019081095099980905	-1.6111478129352416285
4.9396934761577675	0.29783491181906446288	-1.613043280654185917
4.974893393194307	0.29548652631189775697	-1.614956425708160347
5.010093310230847	0.29314569953821573156	-1.6168870742982888553
5.045293227267386	0.2908124753320972533	-1.6188350506361596531
5.080493144303926	0.28848689625212520227	-1.6208001769231049473
5.115693061340465	0.28616900358077612676	-1.6227822733293962313
5.150892978377005	0.28385883732405647883	-1.6247811579731874217
5.186092895413545	0.2815564362113819885	-1.6267966468993701552
5.221292812450081	0.27926183769569939974	-1.6288285540584361722
5.25649272948662	0.2769750779538462382	-1.6308766912850040971
5.29169264652316	0.27469619188714838875	-1.6329408682763388951
5.326892563559699	0.2724252131222499873	-1.6350208925707250443
5.362092480596239	0.27016217401217451632	-1.6371165695257521664
5.3972923976327785	0.26790710563761482854	-1.639227702296468495
5.432492314669318	0.26566003780844738014	-1.6413540918133858997
5.467692231705858	0.2634209990654694522	-1.6434955367604254766
5.502892148742397	0.26119001668235491964	-1.6456518335527895179
5.538092065778933	0.25896711666782729067	-1.6478227763146706712
5.573291982815473	0.25675232376804335566	-1.6500081568568644179
5.608491899852012	0.25454566146918977676	-1.6522077646544000985
5.643691816888552	0.2523471520002832369	-1.6544213868239585971
5.6788917339250915	0.2501568163361749253	-1.6566488081012910769
5.714091650961631	0.24797467420075428035	-1.6588898108185191734
5.749291567998171	0.24580074407034871453	-1.661144174881413451
5.78449148503471	0.24363504317731610183	-1.6634116777465732978
5.81969140207125	0.24147758751382580877	-1.6656920943985790911
5.854891319107786	0.23932839183582563236	-1.667985197327077708
5.890091236144325	0.23718746966718864955	-1.670290756503773209
5.925291153180865	0.23505483330404014497	-1.6726085393595105029
5.9604910702174045	0.23293049381925653996	-1.6749383107612228402
5.995690987253944	0.23081446106713499056	-1.6772798329888735356
6.030890904290484	0.22870674368822915823	-1.6796328657123971515
6.066090821327023	0.2266073491143467955	-1.6819971659686002032
6.101290738363563	0.22451628357370548295	-1.6843724881381629823
6.136490655400102	0.22243355209624279811	-1.686758583922540611
6.171690572436638	0.2203591585190758928	-1.6891552023208585273
6.206890489473178	0.21829310549210600989	-1.6915620896069688801
6.242090406509718	0.21623539448376696837	-1.6939789893064530272
6.277290323546257	0.21418602578690834615	-1.6964056421736079625
6.312490240582797	0.21214499852481280562	-1.6988417861686371726
6.347690157619336	0.21011231065734237156	-1.7012871564347789063
6.382890074655876	0.20808795898720830464	-1.7037414852755441922
6.4180899916924155	0.2060719391663616562	-1.7062045021320630621
6.453289908728955	0.20406424570249878658	-1.7086759335604883645
6.488489825765491	0.20206487196567865516	-1.7111555032095371419
6.523689742802031	0.20007381019504533182	-1.7136429317980853767
6.55888965983857	0.19809105150565475828	-1.716137937093048101
6.59408957687511	0.19611658589539759934	-1.7186402338871616388
6.629289493911649	0.19415040225201476987	-1.7211495339771060394
6.664489410948189	0.19219248836020288995	-1.7236655461417818811
6.6996893279847285	0.1902428309088021463	-1.7261879761206275052
6.734889245021268	0.18830141549806411749	-1.728716526592284021
6.770089162057808	0.18636822664699373431	-1.7312508971534097634
6.805289079094344	0.1844432478007616838	-1.7337907842976755797
6.840488996130883	0.18252646133818031804	-1.736335881395045972
6.875688913167423	0.18061784857924273462	-1.7388858786713099372
6.910888830203962	0.17871738979271481473	-1.7414404631878502197
6.946088747240502	0.17682506420377991363	-1.7439993188217227745
6.9812886642770415	0.17494085000172884814	-1.7465621262460090189
7.016488581313581	0.1730647243476918784	-1.7491285629105054608
7.051688498350121	0.17119666338240674408	-1.751698303022714992
7.086888415386657	0.16933664223401909132	-1.7542710175292556351
7.122088332423196	0.1674846350259087957	-1.7568463740975419857
7.157288249459736	0.16564061488454018267	-1.759424037097900439
7.192488166496275	0.16380455394732773566	-1.7620036675861162388
7.227688083532815	0.16197642337051534889	-1.7645849232863603976
7.262888000569355	0.16015619333706271332	-1.7671674585745653366
7.298087917605894	0.1583438330645346448	-1.769750924462264224
7.333287834642434	0.15653931081298799732	-1.7723349685809426173
7.368487751678973	0.15474259389285194288	-1.7749192351668357096
7.403687668715509	0.15295364867279589993	-1.7775033650463118367
7.438887585752049	0.15117244058758050329	-1.7800869956217618917
7.4740875027885885	0.14939893414588786835	-1.7826697608580094749
7.509287419825128	0.14763309293812382217	-1.7852512912694717096
7.544487336861668	0.14587487964418976993	-1.7878312139077482886
7.579687253898207	0.1441242560412171747	-1.7904091523499001475
7.614887170934747	0.14238118301126129195	-1.7929847266875002454
7.650087087971286	0.1406456205489485245	-1.7955575535161857599
7.685287005007826	0.13891752776907212441	-1.7981272459260225204
7.720486922044362	0.13719686291413246693	-1.8006934134926343371
7.7556868390809015	0.13548358336181512418	-1.8032556622689358584
7.790886756117441	0.13377764563240437945	-1.8058135947778324294
7.826086673153981	0.13207900539612479895	-1.8083668100055919668
7.86128659019052	0.13038761748040680888	-1.8109149033960654231
7.89648650722706	0.12870343587707205879	-1.8134574668458677668
7.931686424263599	0.12702641374943263175	-1.8159940887003040457
7.966886341300139	0.12535650343929952144	-1.8185243537502737867
8.002086258336679	0.12369365647389543583	-1.8210478432301140671
8.037286175373215	0.12203782357266712566	-1.8235641348164311314
8.072486092409754	0.12038895465399139517	-1.8260728026278534263
8.107686009446294	0.11874699884177185305	-1.8285734172258748458
8.142885926482833	0.117111904471918881754	-1.8310655456166995903
8.178085843519373	0.1154836190987093697	-1.8335487512541996887
8.213285760555912	0.11386208950102134907	-1.836022594043976701
8.248485677592452	0.11224726168843758567	-1.8384866303485104235
8.283685594628992	0.11063908090721398525	-1.8409404129935331059
8.318885511665531	0.109037491646107279064	-1.8433834912755528583
8.354085428702067	0.107442437642057422864	-1.8458154109706269707
8.389285345738607	0.105853861885718561475	-1.848235714344398621
8.424485262775146	0.10427170662683618585	-1.8506439401633411665
8.459685179811686	0.10269591337946150367	-1.8530396237073782783
8.494885096848225	0.10112642292700149693	-1.8554222967838828704
8.530085013884765	0.099563175327097658274	-1.857791487742904264
8.565284930921305	0.09800610991632870139	-1.8601467214939443678
8.600484847957844	0.096455165314732693727	-1.8624875195240813848
8.635684764994384	0.09491027943014249124	-1.8648133999175526173
8.67088468203092	0.09337138946233047854	-1.8671238773768659446
8.70608459906746	0.09183843190695571701	-1.8694184632453770128
8.741284516103999	0.090311342559311197364	-1.8716966655314501728
8.776484433140538	0.088790056517862453456	-1.8739579889341721558
8.811684350177078	0.087274508187574983964	-1.8762019348706843075
8.846884267213618	0.08576463128302395933	-1.8784280015051030398
8.882084184250157	0.08426035883128117632	-1.880635683779163648
8.917284101286697	0.082761623174574139306	-1.8828244734445059196
8.952484018323233	0.08126835597271160616	-1.8849938590966690005
8.987683935359772	0.07978048820526970064	-1.8871433262108438973
9.022883852396312	0.078297950173535108	-1.889272357179388239
9.058083769432852	0.076820671502197082625	-1.8913804313511294342
9.093283686469391	0.075348581140784798293	-1.8934670250724815586
9.12848360350593	0.073881607364843712715	-1.8955316117303945316
9.16368352054247	0.07241967777684528429	-1.8975736617971900904
9.19888343757901	0.07096271930682465645	-1.8995926428772779349
9.23408335461555	0.06951065821274024503	-1.901588019755738304
9.269283271652085	0.06806342008054970527	-1.9035592544489093418
9.304483188688625	0.06662092982399578367	-1.9055058062568908409
9.339683105725165	0.06518311168409794687	-1.9074271318179893183
9.374883022761704	0.06374988922834108618	-1.9093226851651892041
9.410082939798244	0.062321185349557453592	-1.9111919177846345891
9.445282856834783	0.060896922264494800225	-1.9130342786761242242
9.480482773871323	0.059477021512064645603	-1.9148492144156304244
9.515682690907862	0.058061403951264335677	-1.9166361692199021312
9.550882607944402	0.05664998975876672782	-1.9183945850131134234
9.586082524980938	0.055242698426170883108	-1.9201239014956022809
9.621282442017478	0.05383944875690672288	-1.9218235562146885119
9.656482359054017	0.05244015886278875077	-1.9234929846376107854
9.691682276090557	0.051044746160209708563	-1.9251316202265497809
9.726882193127096	0.049653127365968934004	-1.9267388945157611707
9.762082110163636	0.048265218492728093058	-1.9283142371908524175
9.797282027200175	0.04688093484408700773	-1.9298570761701469413
9.832481944236715	0.04550019100927258503	-1.9313668376881967893
9.867681861273255	0.044122900857433464128	-1.932842946381405322
9.90288177830979	0.04274897753153309582	-1.9342848253757642348
9.93808169534633	0.041378333441832802764	-1.9356918963767056189
9.97328161238287	0.040010880258959241607	-1.9370635797610829834
10.00848152941941	0.038646528906545643545	-1.9383992946712290328
10.043681446455949	0.037285189553440803434	-1.9396984591111111786
10.078881363492489	0.035926771605476928717	-1.9409604900445800762
10.114081280529028	0.034571183696788111706	-1.9421848034956712089
10.149281197565568	0.03321833368067091119	-1.9433708146509607764
10.184481114602107	0.03186812861997840446	-1.9445179379639520543
10.219681031638643	0.030520474777038949371	-1.9456255872614747135
10.254880948675183	0.029175277603089841416	-1.9466931758520793997
10.290080865711722	0.027832441727218659722	-1.9477201166363895616
10.325280782748262	0.026491870944800099963	-1.9487058222193853123
10.360480699784802	0.025153468205420720372	-1.9496497050246059217
10.395680616821341	0.023817135600280918417	-1.9505511774102326181
10.43088053385788	0.022482774349064205133	-1.951409651786998936
10.46608045089442	0.021150284786263365278	-1.9522245407379146986
10.50128036793096	0.019819566346953063768	-1.9529952571397518106
10.536480284967496	0.018490517551998073703	-1.953721214286258434
10.571680202004035	0.017163035992685409664	-1.9544018260130615286
10.606880119040575	0.01583701831477091898	-1.9550365068241834252
10.642080036077115	0.014512360201926055928	-1.9556246720201627216
10.677279953113654	0.013188956358575027253	-1.9561657378276959634
10.712479870150194	0.011866700492109170245	-1.9566591215307642718
10.747679787186733	0.0105454852944663664965	-1.9571042416031903802
10.782879704223273	0.009225202423062543386	-1.9575005178425389249
10.818079621259809	0.00790574248106230143	-1.9578473715053378521
10.853279538296349	0.006586994996974434094	-1.9581442254435329379
10.888479455332888	0.005268848403560454606	-1.9583905042421088392
10.923679372369428	0.0039511900160393211706	-1.9585856343578174755
10.958879289405967	0.0026339060095757990156	-1.9587290442589367182
10.994079206442507	0.0013168813960367279324	-1.9588201645659859343
11.029279123479046	0.0	-1.9588525814487125961
