# ------------------ Sp-PMF_RE ----------------
# INPUT TAG: DEMO-BIAS | param-file: ".params.txt"
# INPUT KbT: 0.59616108
# INPUT Ks: 2.9808054  (5.0000 KbT/[x]^2)
# INPUT fit-params => depth: -0.4, bias: 0.0, x_offset: 0.0, x_scale: 0.1, phi_offset: 0.0, phi_scale: 1.0
# -----------------------------------------------
X	SP	PMF_RE
-14.385060976902237	1.0	-2.5496433213084921
-14.349861059865697	0.9995111626362367385	-2.549590388984083403
-14.31466114282916	0.9990222384622220453	-2.5494492425351080644
-14.27946122579262	0.9985331695772938776	-2.5492378092886243226
-14.24426130875608	0.99804389848878438674	-2.548956651796074275
-14.20906139171954	0.9975543680968977922	-2.5486063380033839054
-14.173861474683001	0.99706452167995229807	-2.5481874410743052502
-14.138661557646461	0.9965743028799818326	-2.5477005392150331848
-14.103461640609922	0.9960836556886901727	-2.5471462154974302244
-14.068261723573384	0.9955925244337483493	-2.546525057682058629
-14.033061806536844	0.99510085376542900537	-2.5458376580401674465
-13.997861889500307	0.9946085886435717116	-2.5450846131786664566
-13.962661972463767	0.9941156743248706906	-2.54426652385941347
-13.927462055427227	0.9936220563504783998	-2.5433839948257817845
-13.892262138390688	0.99312768053392297407	-2.5424376346233650342
-13.857062221354148	0.99263249294932431877	-2.5414280554243170239
-13.821862304317609	0.99213643991991462556	-2.5403558728521255352
-13.78666238728107	0.99163946800684654725	-2.5392217058049082914
-13.751462470244531	0.9911415239982910297	-2.5380261762830643691
-13.716262553207992	0.9906425548988168073	-2.5367699092128212159
-13.681062636171454	0.9901425079190439016	-2.5354535322764751477
-13.645862719134914	0.98964133046557223317	-2.5340776757385664376
-13.610662802098375	0.9891389701311733562	-2.5326429722759426601
-13.575462885061835	0.98863537468524487206	-2.531150056809216162
-13.540262968025296	0.98813049206452430173	-2.5295995663343229067
-13.505063050988756	0.98762427036405187053	-2.5279921397557818118
-13.469863133952217	0.98711665782838531324	-2.5263284177222760127
-13.434663216915679	0.98660760284305659695	-2.5246090424623846389
-13.39946329987914	0.9860970539262690071	-2.5228346576239581898
-13.364263382842601	0.98558495972083481895	-2.5210059081146011402
-13.329063465806062	0.9850712689863387883	-2.5191234399403754265
-13.293863548769522	0.9845559305915362325	-2.5171879000540482113
-13.258663631732983	0.98403889350697559824	-2.5151999361978557984
-13.223463714696443	0.9835201067978412981	-2.5131601967519749932
-13.188263797659904	0.98299951961701803604	-2.511069330584722117
-13.153063880623364	0.9824770811983691843	-2.5089279869039006019
-13.117863963586826	0.98195274085022876687	-2.506736815112092006
-13.082664046550287	0.9814264479491034976	-2.5044964646616870933
-13.047464129513749	0.9808981519335814303	-2.502207584914739168
-13.01226421247721	0.9803678022984436691	-2.4998708250031200992
-12.97706429544067	0.97983534858898124753	-2.4974868336932424617
-12.94186437840413	0.9793007403955064083	-2.495056259250360439
-12.90666446136759	0.97876392734806427764	-2.4925797493079842016
-12.871464544331051	0.97822485911133616465	-2.4900579507380757125
-12.836264627294513	0.97768348537973648327	-2.4874915095249498997
-12.801064710257974	0.97713975587269774614	-2.4848810706398867549
-12.765864793221434	0.9765936203301445184	-2.4822272779211465975
-12.730664876184896	0.9760450285081517796	-2.4795307739536239585
-12.695464959148357	0.9754939301747862501	-2.4767921999528139127
-12.660265042111817	0.9749402751061317929	-2.4740121956510789274
-12.625065125075277	0.974384013082489453	-2.4711913991860993414
-12.589865208038738	0.9738250938847614613	-2.4683304469927716937
-12.554665291002198	0.9732634672910053242	-2.465429973696456923
-12.51946537396566	0.97269908307316699236	-2.4624906120107250829
-12.484265456929121	0.97213189099398311654	-2.459512992635161601
-12.449065539892583	0.97156184080405749715	-2.4564977441590545423
-12.413865622856044	0.97098888223910384543	-2.453445492964186896
-12.378665705819504	0.97041296501736051816	-2.4503568631336593527
-12.343465788782964	0.96983403883716789995	-2.4472324763603853968
-12.308265871746425	0.9692520533747145395	-2.4440729518606171362
-12.273065954709885	0.9686669582819452673	-2.4408789062880468241
-12.237866037673346	0.9680787031846322943	-2.4376509536518967754
-12.202666120636808	0.9674872376806085139	-2.4343897052377816773
-12.167466203600268	0.9668925113381606762	-2.4310957695287732981
-12.13226628656373	0.9662944736945808799	-2.427769752132872718
-12.097066369527191	0.96569307425487749263	-2.4244122557083902093
-12.061866452490651	0.9650882624906403917	-2.4210238798969576062
-12.026666535454112	0.96447998783906652154	-2.4176052212546649764
-11.991466618417572	0.9638681997021341097	-2.4141568731870450444
-11.956266701381033	0.96325284744593531183	-2.4106794258880663124
-11.921066784344493	0.96263388040015951397	-2.4071734662795714712
-11.885866867307955	0.96201124785772917924	-2.4036395779541136202
-11.850666950271416	0.9613848990745854639	-2.4000783411186639904
-11.815467033234878	0.9607547832696246015	-2.396490332543846351
-11.780267116198338	0.9601208496247831681	-2.3928761255109786798
-11.745067199161799	0.9594830472852703407	-2.3892362897660740762
-11.70986728212526	0.9588413253599500363	-2.3855713914721869645
-11.67466736508872	0.95819563292186527015	-2.381881993166108666
-11.63946744805218	0.95754591900891272704	-2.3781686537170078596
-11.60426753101564	0.9568921326246582204	-2.3744319282861307866
-11.569067613979103	0.95623422273929847837	-2.3706723682901312976
-11.533867696942563	0.9555721382907644834	-2.3668905213648684166
-11.498667779906025	0.9549058281859692521	-2.3630869313329906744
-11.463467862869486	0.9542352413021937263	-2.3592621381711863613
-11.428267945832946	0.953560326488617771	-2.3554166779820696399
-11.393068028796407	0.9528810325679866189	-2.3515510829658863845
-11.357868111759867	0.952197308338421311	-2.3476658813952024191
-11.322668194723327	0.9515091025753630305	-2.3437615975902958518
-11.28746827768679	0.9508163640336582123	-2.3398387518984876765
-11.25226836065025	0.9501190414497797665	-2.3358978606726549657
-11.21706844361371	0.9494170835441846368	-2.3319394362534616235
-11.181868526577173	0.9487104390238060292	-2.3279639869522896609
-11.146668609540633	0.947999056584681421	-2.3239720170353278259
-11.111468692504094	0.94728288491471313026	-2.3199640267114399193
-11.076268775467554	0.9465618726965643326	-2.3159405121192632947
-11.041068858431014	0.9458359686106847519	-2.3119019653164723834
-11.005868941394477	0.94510512133846946714	-2.307848874271658802
-10.970669024357937	0.94436927956554816976	-2.3037817228561198442
-10.935469107321397	0.943628391985205095	-2.299700990837926918
-10.900269190284858	0.942882407301925185	-2.29560715387791305
-10.865069273248318	0.94213127423507492253	-2.2915006835255658875
-10.82986935621178	0.9413749415227019579	-2.2873820472170761377
-10.794669439175241	0.9406133579254694066	-2.28325170827518585
-10.759469522138701	0.9398464722307114938	-2.2791101259091614969
-10.724269605102162	0.9390742332566146544	-2.2749577552164250696
-10.689069688065624	0.938296589856523755	-2.270795047186633896
-10.653869771029084	0.93751349092337188385	-2.2666224487040286483
-10.618669853992545	0.93672488539422971154	-2.2624404025536068343
-10.583469936956005	0.93593072225497886407	-2.258249347427301525
-10.548270019919467	0.93513095054510464443	-2.2540497179312430067
-10.513070102882928	0.9343255193626075483	-2.2498419445935072716
-10.477870185846388	0.9335143778690344618	-2.2456264538743059024
-10.442670268809849	0.9326974752946258773	-2.241403668175115994
-10.40747035177331	0.931874760943579572	-2.2371740058505271793
-10.372270434736771	0.93104618419943097063	-2.232937881220254659
-10.337070517700232	0.9302116945305455298	-2.2286957045810576316
-10.301870600663692	0.92937124149572591936	-2.2244478822217749118
-10.266670683627153	0.9285247747499307813	-2.2201948164365222101
-10.231470766590615	0.92767224405010306754	-2.2159369055406800215
-10.196270849554075	0.92681359926110995495	-2.2116745438861199885
-10.161070932517536	0.9259487903617894533	-2.2074081218787272513
-10.125871015480996	0.92507776745110603667	-2.2031380259949532982
-10.090671098444457	0.9242004807544099698	-2.1988646387998529764
-10.055471181407919	0.9233168806298034381	-2.1945883389661511463
-10.02027126437138	0.9224269175746085958	-2.1903095012926656086
-9.98507134733484	0.9215305422319390871	-2.1860284967247469716
-9.9498714302983	0.92062770539737048825	-2.1817456923738707737
-9.914671513261762	0.9197183580257116686	-2.1774614515391216146
-9.879471596225223	0.9188024512378730746	-2.1731761337278296055
-9.844271679188683	0.9178799363278327128	-2.1688900946779637773
-9.809071762152143	0.91695076476969539225	-2.164603686379545193
-9.773871845115604	0.91601488822484644636	-2.1603172570980879214
-9.738671928079066	0.91507225854919860275	-2.156031151397006716
-9.703472011042527	0.91412282780052533937	-2.1517457101612577758
-9.668272094005987	0.91316654824588983086	-2.1474612706216070666
-9.633072176969447	0.9122033723691534979	-2.1431781663775725814
-9.59787225993291	0.9112332528785758168	-2.1388967274232007177
-9.56267234289637	0.91025614271449517556	-2.13461728017064096
-9.52747242585983	0.9092719950570932186	-2.1303401474758882626
-9.49227250882329	0.9082807633342382392	-2.126065648663904957
-9.457072591786753	0.9072824012294099516	-2.1217940995543429616
-9.421872674750214	0.9062768626896976487	-2.1175258124864630358
-9.386672757713674	0.9052641019338762973	-2.1132610963461864937
-9.351472840677134	0.9042440734605541319	-2.1090002565916590477
-9.316272923640595	0.903216732056392857	-2.1047435952796587195
-9.281073006604057	0.90218203280439579483	-2.1004914110922121777
-9.245873089567517	0.90113993109226442346	-2.096243999363000127
-9.210673172530978	0.9000903826208206393	-2.0920016521047827324
-9.175473255494438	0.8990333434124919698	-2.0877646580354150875
-9.1402733384579	0.89796876981985729316	-2.0835333026056503626
-9.105073421421361	0.89689661853425406424	-2.0793078680255554925
-9.069873504384821	0.89581684659444027474	-2.0750886332922139502
-9.034673587348282	0.89472941139531336763	-2.0708758742169530113
-8.999473670311742	0.89363427069668166514	-2.0666698634521559652
-8.964273753275204	0.89253138263208475767	-2.0624708705192048908
-8.929073836238665	0.891420705717665407	-2.0582791618354391086
-8.893873919202125	0.89030219886108519223	-2.05409500074187323
-8.858674002165586	0.88917582137048534197	-2.0499186475301862955
-8.823474085129048	0.88804153296348808944	-2.0457503594705834019
-8.788274168092508	0.8868992937762386619	-2.0415903908387605283
-8.753074251055969	0.88574906437248335234	-2.0374389929436125546
-8.71787433401943	0.8845908057526817858	-2.0332964141543431642
-8.682674416982891	0.88342447936315238177	-2.029162899928033445
-8.647474499946352	0.8822500471052459048	-2.0250386928363951417
-8.612274582909812	0.8810674713445478812	-2.020924032593544319
-8.577074665873273	0.87987671492010377516	-2.0168191560826718464
-8.541874748836733	0.87867774115366781285	-2.0127242973833520765
-8.506674831800195	0.87747051385897045783	-2.0086396877986161273
-8.471474914763656	0.8762549973510032064	-2.0045655558813901672
-8.436274997727116	0.8750311564553175936	-2.0005021274616784786
-8.401075080690577	0.87379895651733519024	-1.9964496256731304117
-8.365875163654039	0.8725583634116684806	-1.9924082709799551037
-8.3306752466175	0.8713093435514461804	-1.9883782812025041044
-8.29547532958096	0.8700518638976425523	-1.9843598715446988624
-8.26027541254442	0.868785891968409385	-1.9803532546195934028
-8.22507549550788	0.8675113958484030885	-1.9763586404756705875
-8.189875578471343	0.866228344198110789	-1.9723762366230395294
-8.154675661434803	0.8649367062631655445	-1.9684062480584746339
-8.119475744398263	0.8636364518836535664	-1.9644488772922344432
-8.084275827361724	0.8623275515034087846	-1.9605043243728811693
-8.049075910325186	0.8610099761792897599	-1.9565727869126429611
-8.013875993288647	0.85968369759043816725	-1.9526544601128872806
-7.978676076252107	0.8583486880475186265	-1.9487495367893548419
-7.943476159215567	0.85700492050192955684	-1.9448582073964726485
-7.908276242179028	0.8556523685549899394	-1.9409806600528520029
-7.87307632514249	0.85429100646709565936	-1.9371170805653201719
-7.83787640810595	0.85292080916683943315	-1.9332676524532073932
-7.802676491069411	0.8515417522600993161	-1.9294325569733642743
-7.767476574032871	0.85015381203908468866	-1.9256119731432890494
-7.7322766569963335	0.84875696549134094226	-1.9218060777656501093
-7.697076739959794	0.84735119030870997836	-1.9180150454514507142
-7.661876822923254	0.8459364648962415245	-1.9142390486441392967
-7.626676905886715	0.84451276838105515665	-1.9104782576423319536
-7.591476988850177	0.84308008062114536685	-1.9067328406233014438
-7.556277071813637	0.8416383822141328963	-1.903002963665772893
-7.521077154777098	0.84018765450595422895	-1.8992887907726883277
-7.485877237740558	0.8387278795994876912	-1.8955904838936984393
-7.450677320704019	0.83725904036311493694	-1.8919082029476722171
-7.415477403667481	0.8357811204392124882	-1.8882421058448684106
-7.380277486630941	0.8342941042525712225	-1.8845923485084938021
-7.345077569594402	0.8327979770187408093	-1.8809590848970129903
-7.309877652557862	0.83129272475229643025	-1.877342467025412135
-7.274677735521324	0.82977833427502400987	-1.8737426449866262968
-7.239477818484785	0.82825479322402062454	-1.8701597669725465284
-7.204277901448245	0.8267220900597097577	-1.8665939792953342551
-7.169077984411706	0.82518021407376396237	-1.8630454264079007617
-7.133878067375166	0.8236291553969367074	-1.8595142509245835307
-7.098678150338628	0.82206890500679619116	-1.8560005936414817431
-7.063478233302089	0.82049945473536090024	-1.8525045935564949674
-7.028278316265549	0.81892079727663369404	-1.8490263878895197407
-6.9930783992290095	0.8173329261940293078	-1.845566112101996551
-6.957878482192472	0.8157358359276958293	-1.8421238999167212287
-6.922678565155932	0.814129521801723377	-1.8386998833366810758
-6.887478648119393	0.81251398003124020164	-1.8352941926648136351
-6.852278731082853	0.810889207729391881	-1.8319069565225723005
-6.817078814046315	0.8092552029142004999	-1.8285383018688257036
-6.781878897009776	0.8076119645153012616	-1.8251883540181846091
-6.746678979973236	0.80595949238055475394	-1.8218572366597292297
-6.7114790629366965	0.80429778728252998565	-1.8185450718748077008
-6.676279145900157	0.80262685092485686056	-1.8152519801550563481
-6.641079228863619	0.80094668594844475873	-1.811978080420384793
-6.6058793118270795	0.7992572959375651154	-1.8087234900361580792
-6.57067939479054	0.79755868542579422265	-1.8054883248307403232
-6.535479477754	0.7958508599018134788	-1.8022726991125939493
-6.500279560717463	0.7941338258150666407	-1.7990767256874446604
-6.465079643680923	0.7924075905812679732	-1.795900515874676204
-6.4298797266443835	0.79067216258776218396	-1.7927441795242112622
-6.394679809607844	0.78892755119872970404	-1.7896078250326886582
-6.359479892571304	0.78717376676023897986	-1.7864915593596914237
-6.3242799755347665	0.785410820605139115	-1.7833954880439172611
-6.289080058498227	0.78363872505779441635	-1.7803197152186438969
-6.253880141461687	0.78185749343865429406	-1.7772643436276402145
-6.218680224425148	0.78006714006865973676	-1.7742294746404223083
-6.18348030738861	0.77826768027348103285	-1.7712152082675937067
-6.14828039035207	0.77645913038758629376	-1.7682216431755970284
-6.113080473315531	0.77464150775813744865	-1.7652488767021420658
-6.077880556278991	0.77281483074871348826	-1.7622970048703805249
-6.0426806392424535	0.77097911874285363076	-1.7593661224036380135
-6.007480722205914	0.76913439214742518324	-1.7564563227394986669
-5.972280805169374	0.7672806723958074393	-1.7535676980442975116
-5.937080888132835	0.7654179819508954985	-1.7507003392268527655
-5.901880971096295	0.76354634430791556987	-1.747854335952137
-5.866681054059757	0.7616657839970556454	-1.7450297766551832814
-5.831481137023218	0.7597763265859053261	-1.7422267485541950132
-5.796281219986678	0.7578779986817062442	-1.7394453376640122301
-5.761081302950139	0.75597082793340708573	-1.7366856288090389775
-5.725881385913601	0.75405484303352654507	-1.733947705636331039
-5.690681468877061	0.75213007371981688287	-1.7312316506280629583
-5.655481551840522	0.75019655077673230714	-1.728537545114365082
-5.620281634803982	0.74825430603669396135	-1.7258654692855205067
-5.5850817177674426	0.74630337238115651566	-1.7232155022042932915
-5.549881800730905	0.7443437837414690339	-1.7205877218180089363
-5.514681883694365	0.7423755750995328917	-1.717982204970294614
-5.479481966657826	0.7403987824882528601	-1.7153990274130414747
-5.444282049621286	0.7384134429917809106	-1.7128382638177890323
-5.409082132584748	0.736419594745550965	-1.7102999877873740036
-5.373882215548209	0.7344172769361041464	-1.7077842718668110829
-5.338682298511669	0.73240652980070164446	-1.7052911875547038114
-5.3034823814751295	0.7303873946267263051	-1.7028208053142007157
-5.26828246443859	0.7283599137508706134	-1.7003731945834705277
-5.233082547402052	0.726324130558108072	-1.6979484237866803053
-5.197882630365513	0.7242800894804524159	-1.695546560344245161
-5.162682713328973	0.72222783599549744693	-1.6931676706833401298
-5.127482796292433	0.7201674166247418185	-1.6908118202478934187
-5.092282879255896	0.71809887893169344064	-1.6884790735087625273
-5.057082962219356	0.7160222715197572807	-1.6861694939734371126
-5.0218830451828165	0.71393764402990234075	-1.6838831441960326015
-4.986683128146277	0.71184504713810992094	-1.681620085786674742
-4.951483211109739	0.7097445325525998383	-1.6793803794210497577
-4.9162832940731995	0.7076361530108368214	-1.6771640848496238525
-4.88108337703666	0.70551996227631585956	-1.6749712609069288735
-4.84588346000012	0.7033960151351246193	-1.6728019655204147418
-4.810683542963581	0.70126436739228503736	-1.6706562557195149647
-4.775483625927043	0.69912507586787320246	-1.6685341876443532091
-4.740283708890503	0.6969781983929155267	-1.6664358165541360338
-4.705083791853964	0.69482379380506475997	-1.6643611968360071302
-4.669883874817424	0.69266192194405273863	-1.6623103820130989965
-4.6346839577808865	0.69049264364692131135	-1.6602834247528897534
-4.599484040744347	0.6883160207430312205	-1.6582803768750668585
-4.564284123707807	0.68613211604885004924	-1.6563012893598561939
-4.529084206671268	0.68394099336251923393	-1.6543462123555041827
-4.493884289634728	0.6817427174581983662	-1.6524151951860477142
-4.45868437259819	0.67953735408019166897	-1.6505082863589967439
-4.423484455561651	0.67732496993685198383	-1.6486255335725609767
-4.388284538525111	0.6751056326942685981	-1.6467669837232380136
-4.353084621488572	0.67287941096973369337	-1.6449326829127257927
-4.317884704452034	0.6706463743249928555	-1.6431226764552203562
-4.282684787415494	0.6684065932592774262	-1.6413370088841353323
-4.247484870378955	0.66616013920212224786	-1.639575723959068686
-4.212284953342415	0.66390708450596613854	-1.637838864672536397
-4.177085036305877	0.66164750243854175693	-1.636126473256491497
-4.141885119269338	0.6593814671750475309	-1.6344385911886164258
-4.106685202232798	0.65710905379011341765	-1.6327752591991595613
-4.071485285196259	0.65483033824955250157	-1.631136517276612324
-4.036285368159719	0.6525453974019036485	-1.6295224046740963491
-4.001085451123181	0.6502543089697683243	-1.6279329599155664042
-3.9658855340866417	0.6479571515409396909	-1.6263682208012455285
-3.930685617050102	0.64565400455932675516	-1.6248282244137399663
-3.8954857000135625	0.643344948315676346	-1.6233130071236368891
-3.8602857829770247	0.641030063938093031	-1.6218226045950678208
-3.825085865940485	0.6387094333823588599	-1.6203570517910159623
-3.7898859489039456	0.6363831394220563764	-1.6189163829789448686
-3.754686031867406	0.6340512656384948986	-1.6175006317357532305
-3.7194861148308664	0.6317138964104419552	-1.6161098309530290734
-3.6842861977943286	0.6293711169036645403	-1.6147440128421471186
-3.649086280757789	0.62702301306027807826	-1.6134032089389631555
-3.6138863637212495	0.6246696715879099804	-1.6120874501089113485
-3.57868644668471	0.62231117994867568566	-1.610796766551462921
-3.543486529648172	0.6199476263479721805	-1.6095311878048853613
-3.5082866126116325	0.617579099723089886	-1.6082907427506407151
-3.473086695575093	0.61520568973164757587	-1.60707545961794338
-3.4378867785385534	0.61282748673984910326	-1.60588536598789553
-3.4026868615020156	0.61044458181056815427	-1.6047204887977843366
-3.367486944465476	0.60805706669126013963	-1.6035808543451323388
-3.3322870274289365	0.6056650338017089963	-1.6024664882917722347
-3.297087110392397	0.60326857622160401373	-1.6013774156677113913
-3.2618871933558573	0.6008677876779584537	-1.6003136608749500142
-3.2266872763193195	0.59846276253236374565	-1.5992752476912201115
-3.19148735928278	0.59605359576809013866	-1.5982621992734661824
-3.156287442246242	0.59364038297703047853	-1.5972745381615752852
-3.1210875252097026	0.591223220346494549	-1.596312286281700406
-3.085887608173163	0.58880220464585508733	-1.5953754649496259349
-3.0506876911366234	0.58637743321304758304	-1.5944640948739037221
-3.015487774100084	0.5839490039409290789	-1.5935781961591378806
-2.9802878570635443	0.5815170152634985268	-1.5927177883090149996
-2.9450879400270047	0.5790815661419812521	-1.5918828902291680998
-2.909888022990465	0.5766427560507809691	-1.5910735202301264141
-2.8746881059539255	0.57420068496330400887	-1.5902896960301714609
-2.8394881889173895	0.57175545333765809275	-1.5895314347578609432
-2.80428827188085	0.56930716210222687135	-1.5887987529546982401
-2.7690883548443104	0.56685591264113033283	-1.5880916665777189225
-2.733888437807771	0.5644018067795664173	-1.5874101910018179875
-2.6986885207712312	0.56194494676904338526	-1.5867543410221569617
-2.6634886037346917	0.55948543527250393925	-1.5861241308562791144
-2.628288686698152	0.55702337534934454055	-1.5855195741463623128
-2.5930887696616125	0.55455887044033591593	-1.5849406839613993688
-2.557888852625073	0.5520920243524463089	-1.5843874727989578334
-2.522688935588537	0.5496229412435709172	-1.5838599525871062965
-2.4874890185519973	0.54715172560717240113	-1.5833581346864281611
-2.4522891015154578	0.5446784822568391249	-1.5828820298915531286
-2.417089184478918	0.542203316310757244	-1.5824316484328292333
-2.3818892674423786	0.5397263331761092964	-1.5820069999779036808
-2.346689350405839	0.53724763853339640995	-1.5816080936331337169
-2.3114894333692995	0.53476733832069300867	-1.5812349379450666792
-2.27628951633276	0.5322855387178345721	-1.5808875409016381058
-2.2410895992962203	0.52980234613054422166	-1.5805659099333851735
-2.2058896822596843	0.5273178671745014645	-1.5802700519146606678
-2.1706897652231447	0.52483220865935720223	-1.5799999731646126224
-2.135489848186605	0.52234547757270022306	-1.5797556794480717351
-2.1002899311500656	0.51985778106397639853	-1.5795371759765321873
-2.065090014113526	0.51736922642836813413	-1.5793444674089400257
-2.0298900970769864	0.51487992109063585033	-1.5791775578523510143
-1.9946901800404468	0.512389972588926379	-1.5790364508625246268
-1.9594902630039073	0.5098994885585520498	-1.5789211494444754954
-1.9242903459673713	0.50740857671574557397	-1.578831656053050469
-1.8890904289308317	0.5049173448413935006	-1.5787679725931541077
-1.853890511894292	0.5024259007647540187	-1.5787301004200705523
-1.8186905948577525	0.49993435234716154802	-1.5787180403396817782
-1.783490677821213	0.49744280746572294705	-1.5787317926085946939
-1.7482907607846734	0.49495137399701083503	-1.5787713569342174488
-1.7130908437481338	0.49246015980075596996	-1.5788367324746476166
-1.6778909267115942	0.48996927270354445616	-1.5789279178385207297
-1.6426910096750547	0.48747882048252272336	-1.5790449110849147617
-1.6074910926385186	0.48498891084911710525	-1.5791877097230160963
-1.572291175601979	0.48249965143276690727	-1.5793563107116198018
-1.5370912585654395	0.48001114976468217677	-1.5795507104588653395
-1.5018913415289	0.47752351326162434386	-1.5797709048215167187
-1.4666914244923603	0.47503684920971583905	-1.5800168891044641182
-1.4314915074558208	0.47255126474828546002	-1.5802886580599870063
-1.3962915904192812	0.47006686685374848844	-1.5805862058868630171
-1.3610916733827416	0.46758376232353043855	-1.5809095262296146351
-1.325891756346202	0.46510205776003560318	-1.5812586121774936038
-1.290691839309666	0.4626218595546661705	-1.5816334562634155685
-1.2554919222731264	0.4601432738718932436	-1.5820340504628715713
-1.2202920052365869	0.4576664066333894776	-1.5824603861926699836
-1.1850920882000473	0.4551913635022193927	-1.5829124543096700035
-1.1498921711635077	0.45271824986709902072	-1.5833902451094069606
-1.1146922541269682	0.45024717082672305324	-1.5838937483245575385
-1.0794923370904286	0.44777823117416742926	-1.5844229531234604927
-1.044292420053889	0.44531153538136869496	-1.5849778481084473492
-1.0090925030173494	0.44284718758368574187	-1.5855584213140723443
-0.9738925859808134	0.44038529156454619962	-1.5861646602053566808
-0.9386926689442738	0.43792595074018242363	-1.5867965516759004821
-0.9034927519077343	0.43546926814446179632	-1.587454082045805189
-0.8682928348711947	0.4330153464138117858	-1.5881372370597036468
-0.8330929178346551	0.43056428777224747817	-1.588846001884510774
-0.7978930007981155	0.42811619401650174987	-1.5895803611072684766
-0.762693083761576	0.4256711665012655743	-1.5903402987327257939
-0.7274931667250364	0.42322930612453701915	-1.5911257981809015273
-0.6922932496884968	0.4207907133130881494	-1.5919368422846697237
-0.6570933326519608	0.41835548800804889247	-1.5927734132870507076
-0.6218934156154212	0.41592372965061286116	-1.593635492838562748
-0.5866934985788816	0.4134955371678706859	-1.5945230619944365617
-0.5514935815423421	0.41107100895877024538	-1.5954361012117070893
-0.5162936645058025	0.40865024288020995735	-1.5963745903462713586
-0.4810937474692629	0.40623333623326812747	-1.59733850864985431
-0.44589383043272335	0.40382038574957074273	-1.5983278347667408346
-0.4106939133961838	0.40141148757780087397	-1.5993425467306850057
-0.3754939963596442	0.39900673727035507188	-1.6003826219614851523
-0.3402940793231082	0.39660622977014592383	-1.6014480372615052201
-0.3050941622865686	0.39421005939755682235	-1.6025387688122529528
-0.26989424525002903	0.39181831983755249782	-1.6036547921706755628
-0.23469432821348946	0.3894311041269447049	-1.6047960822654629236
-0.19949441117694988	0.38704850464181939085	-1.6059626133932464894
-0.1642944941404103	0.38467061308512667805	-1.607154359214659755
-0.12909457710387073	0.38229752047443643637	-1.6083712927503362628
-0.09389466006733116	0.3799293171298626648	-1.60961338637680947
-0.05869474303079514	0.37756609266215906962	-1.6108806118222785439
-0.023494825994255564	0.37520793596098717115	-1.6121729401622979991
0.01170509104228401	0.37285493518336321195	-1.6134903418154379842
0.046905008078823585	0.37050717774228170143	-1.614832786538689729
0.08210492511536316	0.36816475029552048204	-1.6162002434228507282
0.11730484215190273	0.36582773873462981484	-1.6175926808878523438
0.1525047591884423	0.36349622817410681686	-1.6190100666779490664
0.18770467622498188	0.36117030294075835872	-1.620452367856771772
0.22290459326152146	0.35885004656325342198	-1.6219195508022581376
0.2581045102980575	0.35653554176186824654	-1.6234115812015850776
0.29330442733459705	0.35422687043842465693	-1.6249284240458897606
0.3285043443711366	0.35192411366642656345	-1.6264700436249433848
0.3637042614076762	0.34962735168139252862	-1.6280364035216610342
0.3989041784442158	0.3473366638713888399	-1.62962746660655096
0.43410409548075535	0.34505212876776453212	-1.6312431950320587229
0.4693040125172949	0.34277382403608924744	-1.6328835502267274336
0.5045039295538345	0.34050182646729598712	-1.634548492889358283
0.5397038465903741	0.33823621196903069785	-1.636237982982955515
0.5749037636269101	0.33597705555720919213	-1.6379519797286074385
0.6101036806634497	0.33372443134778295715	-1.6396904415992362389
0.6453035976999892	0.33147841254871707184	-1.6414533263132852968
0.6805035147365288	0.32923907145217862213	-1.6432405908281994364
0.7157034317730684	0.32700647942693805703	-1.645052191333803707
0.750903348809608	0.32478070691098537282	-1.6468880832456751065
0.7861032658461475	0.32256182340436112543	-1.6487482211982837011
0.8213031828826871	0.3203498974622036588	-1.6506325590379789682
0.8565030999192267	0.3181449966880127711	-1.652541049815995995
0.8917030169557627	0.31594718772713259458	-1.654473645781237816
0.9269029339923023	0.3137565362604505803	-1.6564302983729341315
0.9621028510288419	0.31157310699831924916	-1.6584109582132019187
0.9973027680653814	0.30939696367469421423	-1.660415575099484806
1.032502685101921	0.30722816904149524708	-1.66244409799685309
1.0677026021384606	0.30506678486318639099	-1.6644964750301815703
1.1029025191750002	0.30291287191157895142	-1.6665726534762157183
1.1381024362115397	0.30076648996085458831	-1.6686725797553745279
1.1733023532480793	0.29862769778281089694	-1.6707961994236853802
1.2085022702846153	0.2964965531423296441	-1.6729434571643630613
1.243702187321155	0.2943731127930650504	-1.6751142967792958253
1.2789021043576945	0.29225743247335722597	-1.6773086611804646325
1.314102021394234	0.2901495669023648749	-1.6795264923811503801
1.3493019384307736	0.288049569776421599	-1.6817677314871309774
1.3845018554673132	0.28595749376561391264	-1.6840323186875444768
1.4197017725038528	0.28387339051058002592	-1.6863201932457145493
1.4549016895403923	0.28179731061953072757	-1.6886312934899337651
1.490101606576932	0.27972930366549103587	-1.6909655568039145539
1.525301523613468	0.2776694181837620068	-1.6933229196172524139
1.5605014406500075	0.27561770166960236628	-1.6957033173956332795
1.595701357686547	0.27357420057613041076	-1.6981066846309347615
1.6309012747230867	0.2715389603124435669	-1.7005329548312525125
1.6661011917596262	0.2695120252419564988	-1.7029820605106496946
1.7013011087961658	0.26749343868095626364	-1.7054539331788472419
1.7365010258327054	0.2654832428973740166	-1.7079485033306963463
1.771700942869245	0.26348147910977176567	-1.710465700435614086
1.806900859905781	0.2614881874865447875	-1.7130054529267238499
1.8421007769423206	0.25950340714533509656	-1.7155676881899050074
1.8773006939788601	0.2575271761526607972	-1.7181523325527169322
1.9125006110153997	0.25555953152375326942	-1.7207593112730714719
1.9477005280519393	0.25360050922260640727	-1.7233885485279490306
1.9829004450884788	0.2516501441622342461	-1.7260399674016392664
2.0181003621250184	0.24970847020513498027	-1.7287134898740768274
2.053300279161558	0.24777552016396253709	-1.7314090368089967056
2.0885001961980976	0.2458513258024015713	-1.7341265279417134036
2.1237001132346336	0.24393591783624588021	-1.7368658818670053219
2.158900030271173	0.24202932593467793576	-1.7396270160266467316
2.1940999473077127	0.24013157872174928364	-1.7424098466968567576
2.2292998643442523	0.23824270377805820131	-1.745214288975564047
2.264499781380792	0.23636272764262392099	-1.7480402567694474105
2.2996996984173315	0.23449167581495591883	-1.7508876627808939387
2.334899615453871	0.23262957275731580009	-1.7537564184947391007
2.3700995324904106	0.23077644189717044787	-1.7566464341648011662
2.40529944952695	0.22893230562983377108	-1.759557618800273753
2.440499366563486	0.22709718532129621882	-1.7624898801519746781
2.475699283600026	0.22527110131123814774	-1.7654431246983597068
2.5108992006365654	0.22345407291622826351	-1.7684172576313707126
2.546099117673105	0.22164611843310075279	-1.7714121828420937735
2.5812990347096445	0.21984725514251238221	-1.774427802906313977
2.616498951746184	0.21805749931267598418	-1.7774640190697517654
2.6516988687827237	0.21627686620326774802	-1.7805207312332226001
2.6868987858192632	0.21450537006950720631	-1.7835978379376076668
2.722098702855803	0.21274302416640639146	-1.786695236348537093
2.757298619892339	0.21098984075318658049	-1.7898128222410035254
2.7924985369288784	0.20924583109785924173	-1.7929504899837558124
2.827698453965418	0.20751100548197121132	-1.7961081325234246256
2.8628983710019575	0.20578537320550768785	-1.7992856413685826187
2.898098288038497	0.20406894259195446084	-1.8024829065735250912
2.9332982050750367	0.20236172099351390496	-1.8056998167218625368
2.9684981221115763	0.20066371479647426845	-1.8089362589099886059
3.003698039148116	0.19897492942672811989	-1.8121921187302505745
3.0388979561846554	0.19729536935543826037	-1.8154672802540344123
3.0740978732211914	0.1956250381048482978	-1.8187616260145614584
3.109297790257731	0.19396393825423394186	-1.8220750369895248079
3.1444977072942706	0.19231207144599535286	-1.8254073925835551092
3.17969762433081	0.19066943839188393861	-1.8287585706104303973
3.2148975413673497	0.1890360388793636548	-1.832128447275173309
3.2500974584038893	0.18741187177810311737	-1.8355168971558395121
3.285297375440429	0.18579693504659519632	-1.8389237931851627488
3.3204972924769685	0.18419122573890225891	-1.8423490066320241928
3.355697209513508	0.18259474001152334321	-1.8457924070827025086
3.390897126550044	0.18100747313038131892	-1.8492538624218920068
3.4260970435865836	0.17942941947792523383	-1.8527332388135204775
3.461296960623123	0.17786057256034837337	-1.8562304006814630833
3.4964968776596628	0.17630092501491528845	-1.8597452106898955845
3.5316967946962023	0.17475046861739715331	-1.8632775297235515465
3.566896711732742	0.17320919428961215059	-1.8668272168677984323
3.6020966287692815	0.17167709210706760814	-1.870394129388415105
3.637296545805821	0.17015415130670089039	-1.8739781227112018429
3.672496462842357	0.16864036029471643485	-1.8775790504014929503
3.7076963798788967	0.16713570665451532582	-1.8811967641432989193
3.7428962969154362	0.165640177154715601	-1.884831113718345471
3.778096213951976	0.16415375775725873919	-1.8884819469849359187
3.8132961309885154	0.16267643362560033071	-1.892149109856516606
3.848496048025055	0.16120818913298173847	-1.8958324462801243087
3.8836959650615945	0.15974900787077958575	-1.8995317982146177757
3.918895882098134	0.15829887265693026732	-1.90324700560870212
3.9540957991346737	0.15685776554442620867	-1.906977906378733698
3.9892957161712097	0.15542566782988115337	-1.9107243363863863389
4.024495633207749	0.15400256006216070381	-1.9144861294160507129
4.059695550244289	0.15258842205107686629	-1.9182631171521178356
4.094895467280828	0.1511832328761413824	-1.9220551291560157103
4.130095384317368	0.14978697089537615361	-1.9258619928430473856
4.165295301353908	0.14839961375417765055	-1.9296835334591258945
4.200495218390447	0.14702113839423211483	-1.9335195740571835889
4.235695135426987	0.14565152106247825081	-1.9373699354735156886
4.270895052463526	0.14429073732011529763	-1.9412344363039339999
4.306094969500062	0.14293876205165273463	-1.9451128928796682723
4.341294886536602	0.14159556947399840054	-1.9490051192430952183
4.3764948035731415	0.14026113314558363854	-1.9529109271233968357
4.411694720609681	0.13893542597552066553	-1.9568301259119115333
4.446894637646221	0.13761842023278988978	-1.9607625226374222379
4.48209455468276	0.13631008755545526157	-1.9647079219412520749
4.5172944717193	0.13501039895990296635	-1.9686661260520944535
4.552494388755839	0.13371932485010204483	-1.9726369347608703525
4.587694305792379	0.13243683502688341491	-1.9766201453952768258
4.622894222828915	0.13116289869723454786	-1.9806155527942267327
4.6580941398654545	0.12989748448360638466	-1.9846229492821842361
4.693294056901994	0.12864056043323163214	-1.988642124643322788
4.728493973938534	0.1273920940274488045	-1.992672866095515677
4.763693890975073	0.12615205219103137191	-1.9967149582642448172
4.798893808011613	0.12492040130151843558	-2.0007681831563483212
4.834093725048152	0.123697107198544237194	-2.0048323201336810135
4.869293642084692	0.12248213519316400455	-2.0089071458866166319
4.9044935591212315	0.12127545007717303871	-2.0129924344074126275
4.9396934761577675	0.120077016132416780625	-2.017087956963577912
4.974893393194307	0.11888679714008860977	-2.021193482071045017
5.010093310230847	0.11770475639001407031	-2.0253087754672241508
5.045293227267386	0.116530856689916820224	-2.0294336000841124046
5.080493144303926	0.1153650603746658454	-2.0335677160211860178
5.115693061340465	0.114207329315499747646	-2.0377108805182491164
5.150892978377005	0.11305762492922673268	-2.0418628479282957481
5.186092895413545	0.11191590818739705071	-2.0460233696901840353
5.221292812450081	0.11078213962544575244	-2.0501921943013902067
5.25649272948662	0.10965627935180287389	-2.054369067290673448
5.29169264652316	0.10853828705696992596	-2.0585537311906757319
5.326892563559699	0.10742812202255822007	-2.062745925510534202
5.362092480596239	0.10632574313028834989	-2.0669453867085100971
5.3972923976327785	0.10523110887094788701	-2.0711518481645601892
5.432492314669318	0.10414417735330480652	-2.075365040152947994
5.467692231705858	0.10306490631297475502	-2.079584689814895125
5.502892148742397	0.10199325312123957987	-2.0838105211311992906
5.538092065778933	0.10092917479381509349	-2.0880422548949639976
5.573291982815473	0.0998726279995653804	-2.0922796086843615465
5.608491899852012	0.09882356906916289763	-2.0965222968354189556
5.643691816888552	0.0977819540036900664	-2.1007700304149539653
5.6788917339250915	0.096747738483182188496	-2.1050225171935738099
5.714091650961631	0.095720877875108495436	-2.1092794616187504916
5.749291567998171	0.094701327242789776206	-2.1135405647880345546
5.78449148503471	0.093689041353750251995	-2.11780552442245201
5.81969140207125	0.09268397468800219918	-2.122074034839974413
5.854891319107786	0.091686081446260725425	-2.126345786929189522
5.890091236144325	0.09069531555808703349	-2.1306204681231860224
5.925291153180865	0.08971163068995907652	-2.134897762373526833
5.9604910702174045	0.08873498025326603811	-2.1391773501245687186
5.995690987253944	0.087765317412226512284	-2.1434589082879340598
6.030890904290484	0.08680259509172749688	-2.1477421102172260027
6.066090821327023	0.08584676598508302059	-2.1520266256830479555
6.101290738363563	0.084897782561710308236	-2.1563121208482678953
6.136490655400102	0.08395559707472201316	-2.160598258243622457
6.171690572436638	0.083020161568432823684	-2.1648846967436118235
6.206890489473178	0.08209142788577823702	-2.1691710915427386574
6.242090406509718	0.08116934767564533415	-2.173457094132162003
6.277290323546257	0.080253872400112169494	-2.1777423522766534822
6.312490240582797	0.079344953341595345075	-2.1820265099919872401
6.347690157619336	0.07844254160990403457	-2.1863092075228110012
6.382890074655876	0.077546588149198875106	-2.19059008132090201
6.4180899916924155	0.076657043744854241885	-2.194868764023909454
6.453289908728955	0.075773859030222531774	-2.199144884434600198
6.488489825765491	0.0748969844932990958	-2.203418067500631432
6.523689742802031	0.07402637048328596092	-2.2076879342948723642
6.55888965983857	0.073161967217054299506	-2.2119541019962666382
6.59408957687511	0.07230372478550244064	-2.2162161838713035395
6.629289493911649	0.07145159315980964543	-2.2204737892561530169
6.664489410948189	0.070605522197583744926	-2.224726523539360683
6.6996893279847285	0.06976546164890133628	-2.228973988145297191
6.734889245021268	0.068931361162239690454	-2.2332157805183022606
6.770089162057808	0.06810317029029877567	-2.237451494107487724
6.805289079094344	0.067280838495712508296	-2.241680718352436383
6.840488996130883	0.06646431515664776024	-2.245903038669531722
6.875688913167423	0.065653549572290650915	-2.250118036439193916
6.910888830203962	0.06484849096821816705	-2.2543252889940380138
6.946088747240502	0.064049088501654707906	-2.2585243696077365915
6.9812886642770415	0.06325529126661207091	-2.2627148474849014593
7.016488581313581	0.062467048298912163096	-2.2668962877519623206
7.051688498350121	0.061684308581091328028	-2.2710682514488955278
7.086888415386657	0.06090702104718513643	-2.2752302955220407876
7.122088332423196	0.06013513458739264128	-2.2793819728179341643
7.157288249459736	0.059368598052619826755	-2.2835228320782290173
7.192488166496275	0.05860736025890023876	-2.2876524179357238691
7.227688083532815	0.057851369991692588868	-2.291770270911489642
7.262888000569355	0.057100576010054290843	-2.295875927413277058
7.298087917605894	0.056354927050690055423	-2.2999689197350353328
7.333287834642434	0.055614371831874474805	-2.3040487760576875147
7.368487751678973	0.05487885905724795843	-2.3081150204512955301
7.403687668715509	0.0541483374194852915	-2.3121671728784287247
7.438887585752049	0.053422755603835199445	-2.3162047491988826432
7.4740875027885885	0.05270206229153154981	-2.3202272611759232213
7.509287419825128	0.051986206163073853115	-2.3242342164838432057
7.544487336861668	0.051275135901377159875	-2.3282251187169835246
7.579687253898207	0.05056880019479030597	-2.3321994674003413768
7.614887170934747	0.049867147739981812493	-2.3361567580016501862
7.650087087971286	0.049170127244692475588	-2.3400964819450717751
7.685287005007826	0.048477687430354139686	-2.3440181266264751713
7.720486922044362	0.047789777034573620307	-2.3479211754303912889
7.7556868390809015	0.047106344813480978406	-2.3518051077486797273
7.790886756117441	0.04642733954394210466	-2.3556693990008797828
7.826086673153981	0.04575271002563365691	-2.3595135206563526969
7.86128659019052	0.045082405082980524236	-2.3633369402582353966
7.89648650722706	0.044416373566954749086	-2.3671391214492100129
7.931686424263599	0.043754564356735053954	-2.3709195239991959308
7.966886341300139	0.043096926361226466085	-2.374677603834914686
8.002086258336679	0.0424434085204389161	-2.3784128130713968596
8.037286175373215	0.041793959806724435835	-2.3821246000455661598
8.072486092409754	0.041148529225871637027	-2.3858124093517362313
8.107686009446294	0.04050706581805757489	-2.3894756818792406271
8.142885926482833	0.039869518658655116183	-2.3931138548521379069
8.178085843519373	0.039235836858895735413	-2.3967263618710133361
8.213285760555912	0.038605969566386691416	-2.4003126329570287436
8.248485677592452	0.03797986596548183491	-2.4038720945980921575
8.283685594628992	0.037357475277505013123	-2.4074041697972757613
8.318885511665531	0.036738746760825433113	-2.4109082781234974144
8.354085428702067	0.03612362971078394297	-2.4143838357645221106
8.389285345738607	0.035512073459469231662	-2.417830255582264992
8.424485262775146	0.034904027375343649187	-2.4212469471704366436
8.459685179811686	0.03429944086271673187	-2.424633316914565385
8.494885096848225	0.033698263361066141397	-2.4279887680544729952
8.530085013884765	0.0331004443442049906	-2.4313127007491531124
8.565284930921305	0.032505933319294202932	-2.434604512144054706
8.600484847957844	0.031914679825699149296	-2.4378635964409613862
8.635684764994384	0.031326633433689424213	-2.4410893449702915105
8.67088468203092	0.030741743742980606052	-2.4442811462659514584
8.70608459906746	0.030159960381116665551	-2.4474383861427270554
8.741284516103999	0.029581233001692568141	-2.4505604477762130584
8.776484433140538	0.029005511282414776775	-2.4536467117853976749
8.811684350177078	0.02843274492299935341	-2.456696556317750088
8.846884267213618	0.027862883642905761361	-2.4597093571369589137
8.882084184250157	0.027295877178905435245	-2.462684487713299751
8.917284101286697	0.026731675282483418482	-2.4656213193165670632
8.952484018323233	0.026170227717071902623	-2.4685192211117084468
8.987683935359772	0.025611484255113781128	-2.4713775602570592256
9.022883852396312	0.025055394674955551448	-2.474195702005209548
9.058083769432852	0.024501908757566817632	-2.476973009806530686
9.093283686469391	0.023950976283085696067	-2.479708845415320362
9.12848360350593	0.023402547027187962925	-2.4824025689985978133
9.16368352054247	0.022856570757278413253	-2.4850535392475120327
9.19888343757901	0.022312997228502429864	-2.487661113491373558
9.23408335461555	0.021771776179576086269	-2.490224647814286613
9.269283271652085	0.02123285732843268464	-2.4927434971743704167
9.304483188688625	0.020696190367683595102	-2.4952170155255693938
9.339683105725165	0.02016172495989195651	-2.497644555941994712
9.374883022761704	0.019629410732656112776	-2.500025470744797334
9.410082939798244	0.019099197273501258149	-2.5023591116315840632
9.445282856834783	0.018571034124576817764	-2.5046448298082652731
9.480482773871323	0.018044870777156975239	-2.506881976123350784
9.515682690907862	0.017520656665942116459	-2.509069901204701846
9.550882607944402	0.016998341163158448702	-2.5112079555986003604
9.586082524980938	0.016477873572453258927	-2.5132954899111798848
9.621282442017478	0.015959203122582719947	-2.5153318549521490905
9.656482359054017	0.015442278960890213138	-2.5173164018807375948
9.691682276090557	0.014927050146571091069	-2.519248482353852202
9.726882193127096	0.014413465643721729004	-2.521127448676368942
9.762082110163636	0.013901474314169262256	-2.5229526539534752544
9.797282027200175	0.013391024910078864335	-2.5247234522450814533
9.832481944236715	0.012882066066335188387	-2.5264391987221640722
9.867681861273255	0.012374546292694415736	-2.528099249824997122
9.90288177830979	0.011868413965703386581	-2.5297029634232164454
9.93808169534633	0.011363617320381729295	-2.5312496989776260845
9.97328161238287	0.010860104441663898794	-2.5327388177036760507
10.00848152941941	0.010357823255596065523	-2.5341696827365348074
10.043681446455949	0.009856721520284513968	-2.5355416592976773125
10.078881363492489	0.0093567468165909259414	-2.5368541148628782301
10.114081280529028	0.008857846538570171915	-2.5381064193315579518
10.149281197565568	0.008359967883646058501	-2.5392979451973549017
10.184481114602107	0.007863057842520244228	-2.5404280677198533848
10.219681031638643	0.0073670631888095514106	-2.5414961650973572588
10.254880948675183	0.0068719304684062452668	-2.542501618640600082
10.290080865711722	0.006377605988556867174	-2.543443812947300727
10.325280782748262	0.0058840358066531688735	-2.544322136077454553
10.360480699784802	0.0053911657187303866842	-2.5451359797292488097
10.395680616821341	0.004898941247666733015	-2.5458847394154761018
10.43088053385788	0.004407307631078253088	-2.5465678146403550538
10.46608045089442	0.0039162098089028807985	-2.5471846090766165586
10.50128036793096	0.0034255924106673580655	-2.5477345307427537472
10.536480284967496	0.0029353997424305254722	-2.548216992180299781
10.571680202004035	0.0024455757733959117284	-2.5486314106310121728
10.606880119040575	0.0019560641221873982	-2.5489772082138434839
10.642080036077115	0.0014668080427797597701	-2.5492538121015569667
10.677279953113654	0.0009777504100773844794	-2.5494606546968669452
10.712479870150194	0.00048883370513321010905	-2.5495971738079678606
10.747679787186733	0.0	-2.5496477832035243773
