# ------------------ Sp-PMF_RE ----------------
# INPUT TAG: DEMO-BIAS | param-file: ".params.txt"
# INPUT KbT: 0.59616108
# INPUT Ks: 2.9808054  (5.0000 KbT/[x]^2)
# INPUT fit-params => depth: -0.4, bias: 0.05, x_offset: 0.0, x_scale: 0.1, phi_offset: 0.0, phi_scale: 1.0
# -----------------------------------------------
X	SP	PMF_RE
-14.24426130875608	1.0	-2.9865018822544208226
-14.20906139171954	0.99976508030530886195	-2.986449087624571366
-14.173861474683001	0.9995301190008987202	-2.9862980738964737591
-14.138661557646461	0.9992950802654452236	-2.9860565275574281912
-14.103461640609922	0.9990599284927292878	-2.9857250889250862664
-14.068261723573384	0.99882462827991347343	-2.9853044084533562007
-14.033061806536844	0.9985891444160666097	-2.9847951464666517872
-13.997861889500307	0.99835344187093866264	-2.9841979728965328498
-13.962661972463767	0.998117485783970082	-2.98351356700481002
-13.927462055427227	0.9978812414535386255	-2.9827426171163624825
-13.892262138390688	0.9976446743264313355	-2.9818858203407211792
-13.857062221354148	0.9974077499875413366	-2.9809438822952235822
-13.821862304317609	0.99717043414977901694	-2.9799175168248300764
-13.78666238728107	0.9969326926441972603	-2.9788074457220267265
-13.751462470244531	0.9966944914103222919	-2.9776143984444382793
-13.716262553207992	0.99645579648668702877	-2.9763391118314229723
-13.681062636171454	0.996216574001563715	-2.9749823298212683335
-13.645862719134914	0.99597679016388529494	-2.9735448031629854798
-13.610662802098375	0.99573641125436096466	-2.9720272891374818717
-13.575462885061835	0.9954954036167722453	-2.9704305512678891728
-13.540262968025296	0.99525373364945191046	-2.9687553590372372312
-13.505063050988756	0.9950113677969384396	-2.9670024876027930518
-13.469863133952217	0.9947682725418035554	-2.9651727175155617124
-13.434663216915679	0.9945244143966516237	-2.9632668344365215205
-13.39946329987914	0.9942797598962807015	-2.9612856288517772916
-13.364263382842601	0.994034275590009897	-2.9592298958005506518
-13.329063465806062	0.99378792803416549084	-2.9571004345879952347
-13.293863548769522	0.9935406837847209349	-2.9548980485155632173
-13.258663631732983	0.9932925093900950575	-2.952623544603287049
-13.223463714696443	0.9930433713840955967	-2.950277733316903881
-13.188263797659904	0.9927932362790147236	-2.947861428299621303
-13.153063880623364	0.9925420705588673398	-2.9453754461028163875
-13.117863963586826	0.9922898406727732601	-2.942820605923318291
-13.082664046550287	0.9920365130284795052	-2.9401977293374701125
-13.047464129513749	0.9917820539860197071	-2.9375076400477271351
-13.01226421247721	0.99152642985151140387	-2.934751163620497753
-12.97706429544067	0.99126960687108356396	-2.9319291272390873874
-12.94186437840413	0.9910115512249404457	-2.9290423594508523597
-12.90666446136759	0.99075222902154935767	-2.9260916899224079252
-12.871464544331051	0.990491606291961979	-2.9230779491992941353
-12.836264627294513	0.9902296489842576932	-2.9200019684662503953
-12.801064710257974	0.98996632295811315405	-2.9168645793115792648
-12.765864793221434	0.98970159397949364344	-2.913666613499484976
-12.730664876184896	0.9894354277154664423	-2.9104089027432116133
-12.695464959148357	0.9891677897291337729	-2.9070922784814146505
-12.660265042111817	0.98889864547468431244	-2.9037175716618940915
-12.625065125075277	0.9886279602925605037	-2.9002856125264661093
-12.589865208038738	0.98835569940474354844	-2.8967972304035143616
-12.554665291002198	0.98808182791015208846	-2.8932532535018150304
-12.51946537396566	0.9878063107801544618	-2.8896545087118153093
-12.484265456929121	0.98752911285419409104	-2.8860018214067929426
-12.449065539892583	0.9872501988355252278	-2.8822960152555309858
-12.413865622856044	0.9869695332870606075	-2.8785379120321785505
-12.378665705819504	0.98668708062732835007	-2.8747283314369136591
-12.343465788782964	0.98640280512653744083	-2.8708680909169444423
-12.308265871746425	0.9861166709027523458	-2.866958005494557881
-12.273065954709885	0.98582864191817420885	-2.8629988875981242512
-12.237866037673346	0.98553868197552907393	-2.8589915469000776612
-12.202666120636808	0.98524675471456368836	-2.8549367901576349744
-12.167466203600268	0.98495282360864433446	-2.8508354210569398664
-12.13226628656373	0.98465685196146401914	-2.8466882400682169615
-12.097066369527191	0.984358802903852248	-2.8424960442953270743
-12.061866452490651	0.9840586393906897156	-2.8382596273402572692
-12.026666535454112	0.98375632419792757855	-2.8339797791656182245
-11.991466618417572	0.9834518199197098687	-2.8296572859640344892
-11.956266701381033	0.98314508896559937856	-2.825292930030904687
-11.921066784344493	0.98283609355790579887	-2.8208874896441614804
-11.885866867307955	0.98252479572911943784	-2.8164417389471294662
-11.850666950271416	0.98221115731944441674	-2.8119564478323611147
-11.815467033234878	0.98189513997443655935	-2.8074323818377309166
-11.780267116198338	0.9815767051427429779	-2.8028703020377865962
-11.745067199161799	0.9812558140739441326	-2.7982709649481897608
-11.70986728212526	0.9809324278164993638	-2.7936351224269575593
-11.67466736508872	0.98060650721579234457	-2.7889635215834810318
-11.63946744805218	0.9802780129122810049	-2.7842569046930677405
-11.60426753101564	0.9799469053397498186	-2.7795160091121831085
-11.569067613979103	0.97961314472366300965	-2.7747415671998425758
-11.533867696942563	0.97927669107962156403	-2.7699343062411272017
-11.498667779906025	0.9789375042119223824	-2.765094948379273665
-11.463467862869486	0.97859554371222101654	-2.7602242105440177966
-11.428267945832946	0.97825076895829576884	-2.755322804391198553
-11.393068028796407	0.97790313911291681936	-2.7503914362408968363
-11.357868111759867	0.9775526131228166049	-2.7454308070217499347
-11.322668194723327	0.9771991497177657804	-2.7404416122185321272
-11.28746827768679	0.9768427074097515428	-2.73542454182265104
-11.25226836065025	0.97648324449226020505	-2.7303802802850742446
-11.21706844361371	0.97612071903966435293	-2.7253095064756978304
-11.181868526577173	0.9757550889067139188	-2.7202128936437654744
-11.146668609540633	0.97538631172813328174	-2.7150911093800684936
-11.111468692504094	0.97501434491832139617	-2.7099448155859553202
-11.076268775467554	0.9746391456711591683	-2.7047746684435188202
-11.041068858431014	0.97426067095992263667	-2.6995813183869689948
-11.005868941394477	0.9738788775372992923	-2.6943654100802697953
-10.970669024357937	0.9734937219355148663	-2.689127582395268945
-10.935469107321397	0.97310516046656381217	-2.6838684683944345325
-10.900269190284858	0.9727131492225485898	-2.6785886953136314728
-10.865069273248318	0.972317644076124421	-2.673288884549906254
-10.82986935621178	0.9719186006810541789	-2.667969651650817462
-10.794669439175241	0.9715159744728679714	-2.6626316063063434048
-10.759469522138701	0.9711097206696365225	-2.6572753523448115341
-10.724269605102162	0.97069979427284747153	-2.6519014877259883102
-10.689069688065624	0.9702861500683938045	-2.6465106045438738026
-10.653869771029084	0.96986874262767241994	-2.6411032890257802174
-10.618669853992545	0.9694475263087912742	-2.635680121535673892
-10.583469936956005	0.96902245525788544	-2.6302416765798732003
-10.548270019919467	0.96859348341054751774	-2.6247885228155703238
-10.513070102882928	0.9681605644933652943	-2.6193212230575570014
-10.477870185846388	0.9677236520255728669	-2.6138403342909552129
-10.442670268809849	0.9672826993208107904	-2.6083464076839163223
-10.40747035177331	0.9668376594890022435	-2.6028399886021212667
-10.372270434736771	0.966388485438336553	-2.5973216166251965283
-10.337070517700232	0.9659351298773695138	-2.5917918255634881737
-10.301870600663692	0.9654775453172326216	-2.5862511434793133988
-10.266670683627153	0.9650156840739594344	-2.5807000927069081043
-10.231470766590615	0.96454949827092184567	-2.5751391898741532336
-10.196270849554075	0.964078939841380933	-2.569568945926718175
-10.161070932517536	0.9636039605311536027	-2.5639898661538868875
-10.125871015480996	0.9631245119013901457	-2.5584024502135840654
-10.090671098444457	0.9626405453314692551	-2.5528071921602658628
-10.055471181407919	0.96215201202200462127	-2.5472045804736320907
-10.02027126437138	0.96165886299796865533	-2.5415950980878933808
-9.98507134733484	0.9611610491119301214	-2.5359792224232386192
-9.9498714302983	0.9606585210474064551	-2.5303574254164839475
-9.914671513261762	0.96015122932233187836	-2.5247301735548441364
-9.879471596225223	0.95963912429264053294	-2.5190979279079831555
-9.844271679188683	0.95912215615596496665	-2.5134611441645939138
-9.809071762152143	0.9586002749554513036	-2.507820272665619214
-9.773871845115604	0.95807343058368721334	-2.502175758440733892
-9.738671928079066	0.9575415727867485627	-2.4965280412456326013
-9.703472011042527	0.95700465116835886636	-2.4908775555986229177
-9.668272094005987	0.95646261519416786445	-2.4852247308195021516
-9.633072176969447	0.9559154141961411222	-2.479569991066858852
-9.59787225993291	0.9553629973770693118	-2.4739137553786261284
-9.56267234289637	0.9548053138151897379	-2.4682564377103032318
-9.52747242585983	0.95424231246892587954	-2.462598446976555056
-9.49227250882329	0.95367394218173950904	-2.4569401870906718364
-9.457072591786753	0.9531001516871002721	-2.4512820570062153415
-9.421872674750214	0.9525208896135672898	-2.4456244507577031412
-9.386672757713674	0.951936104489988999	-2.4399677575036538178
-9.351472840677134	0.95134574475081368217	-2.4343123615667699668
-9.316272923640595	0.9507497587415159046	-2.4286586424778196676
-9.281073006604057	0.9501480947241374153	-2.4230069750181235703
-9.245873089567517	0.94954070088293984764	-2.4173577292607281066
-9.210673172530978	0.94892752533017088457	-2.4117112706156739726
-9.175473255494438	0.948308516111944666	-2.406067959871688332
-9.1402733384579	0.947683621214231775	-2.4004281532399224137
-9.105073421421361	0.94705278856896291106	-2.3947922023974308522
-9.069873504384821	0.9464159660602441404	-2.3891604545311099415
-9.034673587348282	0.94577310153068083753	-2.3835332523801977327
-8.999473670311742	0.945124142787813204	-2.37791093428141589
-8.964273753275204	0.9444690376106625873	-2.3722938342121011133
-8.929073836238665	0.94380773375638349343	-2.366682281832771428
-8.893873919202125	0.94314017896702662114	-2.3610766025329637712
-8.858674002165586	0.9424663209764088112	-2.355477117473494565
-8.823474085129048	0.94178610751708924376	-2.3498841436305816866
-8.788274168092508	0.941099486327451773	-2.3442979938389122718
-8.753074251055969	0.94040640515889339923	-2.338718976836207584
-8.71787433401943	0.9397068117831161027	-2.3331473973055412022
-8.682674416982891	0.93900065399952259426	-2.3275835559195314165
-8.647474499946352	0.93828787964271476163	-2.3220277493822147866
-8.612274582909812	0.937568436590092702	-2.3164802704738361747
-8.577074665873273	0.93684227276955700514	-2.3109414080924823057
-8.541874748836733	0.9361093361673067381	-2.3054114472968193486
-8.506674831800195	0.935369574835739348	-2.2998906693495870125
-8.471474914763656	0.9346229369014460442	-2.2943793517585700777
-8.436274997727116	0.9338693705733039918	-2.2888777683198368708
-8.401075080690577	0.9331088241506630965	-2.2833861891590243388
-8.365875163654039	0.93234124603162726874	-2.2779048807736035451
-8.3306752466175	0.93156658472142739313	-2.2724341060733518512
-8.29547532958096	0.9307847888408858905	-2.2669741244228865317
-8.26027541254442	0.9299958071349715416	-2.261525191681485568
-8.22507549550788	0.92919958848144101893	-2.2560875602442312811
-8.189875578471343	0.9283960818995697917	-2.2506614790828540803
-8.154675661434803	0.92758523655896640836	-2.245247193784845164
-8.119475744398263	0.9267670017884721556	-2.239844946594483515
-8.084275827361724	0.92594132708514231833	-2.2344549764516423817
-8.049075910325186	0.92510816212330881925	-2.2290775190317044555
-8.013875993288647	0.92426745676372168425	-2.223712806783446369
-7.978676076252107	0.92341916106276744625	-2.2183610689691519212
-7.943476159215567	0.92256322528176537556	-2.213022531702173476
-7.908276242179028	0.9216995998963350978	-2.2076974179847479256
-7.87307632514249	0.9208282356058379303	-2.202385947746511774
-7.83787640810595	0.91994908334288849616	-2.1970883378811564984
-7.802676491069411	0.9190620942829348383	-2.1918048022840397955
-7.767476574032871	0.9181672198539041485	-2.186535551888704877
-7.7322766569963335	0.9172644117459152202	-2.1812807947034986709
-7.697076739959794	0.9163536219210505207	-2.1760407358470570424
-7.661876822923254	0.91543480262319221197	-2.1708155775849149293
-7.626676905886715	0.91450790638791346066	-2.1656055193642757017
-7.591476988850177	0.91357288605242925605	-2.160410757849672699
-7.556277071813637	0.9126296947655987424	-2.1552314869564070708
-7.521077154777098	0.9116782859979805087	-2.1500678978864611105
-7.485877237740558	0.9107186135519391712	-2.1449201791619445557
-7.450677320704019	0.9097506315717979186	-2.1397885166582257866
-7.415477403667481	0.9087742945540357997	-2.13467309363809299
-7.380277486630941	0.90778955735753030787	-2.1295740907838110806
-7.345077569594402	0.90679637521383726906	-2.1244916862306675775
-7.309877652557862	0.9057947037375126964	-2.119426055598889666
-7.274677735521324	0.90478449893646717417	-2.1143773720253129002
-7.239477818484785	0.9037657172223543256	-2.109345806194747372
-7.204277901448245	0.9027383154209905891	-2.1043315263722261249
-7.169077984411706	0.9017022507828036382	-2.0993346984330009102
-7.133878067375166	0.90065748099330456	-2.0943554858929634974
-7.098678150338628	0.89960396418358412607	-2.089394049939596665
-7.063478233302089	0.89854165894083015687	-2.0844505494608998636
-7.028278316265549	0.89747052431886076285	-2.0795251410754335654
-6.9930783992290095	0.89639051984867390566	-2.0746179791612378467
-6.957878482192472	0.89530160554900883874	-2.0697292158848811991
-6.922678565155932	0.8942037419369168738	-2.0648590012292024586
-6.887478648119393	0.89309689003833858667	-2.0600074830221389351
-6.852278731082853	0.8919810113986853528	-2.055174806964135274
-6.817078814046315	0.8908560680934218823	-2.0503611166559076128
-6.781878897009776	0.88972202273864675615	-2.0455665536245281474
-6.746678979973236	0.88857883850166674566	-2.0407912573514874538
-6.7114790629366965	0.88742647911156746776	-2.0360353652982831564
-6.676279145900157	0.88626490886976783123	-2.0312990129323653184
-6.641079228863619	0.88509409266056560117	-2.0265823337538798536
-6.6058793118270795	0.8839139959616646447	-2.021885459319612989
-6.57067939479054	0.8827245848546806384	-2.017208519269198233
-6.535479477754	0.8815258260356280129	-2.012551641349602265
-6.500279560717463	0.8803176868253779208	-2.0079149514394750748
-6.465079643680923	0.879100135180088893	-2.0032985735730528276
-6.4298797266443835	0.87787313970160540944	-1.9987026299645251171
-6.394679809607844	0.8766366696478216092	-1.994127241030815903
-6.359479892571304	0.8753906949430053652	-1.9895725254154440119
-6.3242799755347665	0.874135186188085167	-1.9850386000112601179
-6.289080058498227	0.8728701146708871539	-1.9805255799821499721
-6.253880141461687	0.87159545237632851666	-1.9760335787866773469
-6.218680224425148	0.87031117199655971817	-1.9715627081990573069
-6.18348030738861	0.8690172469410507583	-1.967113078331074198
-6.14828039035207	0.8677136513466220391	-1.9626847976534505851
-6.113080473315531	0.86640036008741538875	-1.9582779730170556365
-6.077880556278991	0.86507734878479936036	-1.9538927096732694324
-6.0426806392424535	0.8637445938172098048	-1.9495291112951997223
-6.007480722205914	0.8624020723299202773	-1.9451872799969851879
-5.972280805169374	0.86104976224473761537	-1.9408673163542330278
-5.937080888132835	0.85968764226962268715	-1.9365693194235804325
-5.901880971096295	0.85831569190823098214	-1.9322933867621794991
-5.866681054059757	0.8569338914693711562	-1.9280396144465512104
-5.831481137023218	0.8555422220763746477	-1.9238080970911064512
-5.796281219986678	0.8541406656763794736	-1.9195989278675836095
-5.761081302950139	0.8527292050495197673	-1.9154121985224508798
-5.725881385913601	0.8513078238180187274	-1.911247999395352627
-5.690681468877061	0.84987650645518397763	-1.9071064194364485281
-5.655481551840522	0.84843523829429945415	-1.9029875462245580219
-5.620281634803982	0.84698400553741393093	-1.8988914659837823571
-5.5850817177674426	0.8455227952640173017	-1.8948182636005923968
-5.549881800730905	0.8440515954396089482	-1.8907680226409690244
-5.514681883694365	0.8425703949241483137	-1.8867408253662049827
-5.479481966657826	0.8410791834803889033	-1.8827367527496644286
-5.444282049621286	0.8395779517820897153	-1.8787558844924896041
-5.409082132584748	0.8380666914221036601	-1.8747982990396122039
-5.373882215548209	0.836545394920336971	-1.870864073594809522
-5.338682298511669	0.8350140557315792744	-1.8669532841364093458
-5.3034823814751295	0.83347266825319854533	-1.863066005432014674
-5.26828246443859	0.831921227832700394	-1.8592023110536585785
-5.233082547402052	0.83035973077514801943	-1.8553622733921132595
-5.197882630365513	0.82878817435043650175	-1.8515459636710629057
-5.162682713328973	0.82720655680042520785	-1.8477534519616788927
-5.127482796292433	0.8256148773459175416	-1.8439848071963667238
-5.092282879255896	0.8240131361934934784	-1.8402400971824507832
-5.057082962219356	0.8224013345421815613	-1.8365193886152535483
-5.0218830451828165	0.820779474589979241	-1.8328227470921720565
-4.986683128146277	0.81914755954020912476	-1.8291502371250122668
-4.951483211109739	0.8175055936077133545	-1.8255019221533427159
-4.9162832940731995	0.815853582024882118	-1.8218778645566012686
-4.88108337703666	0.8141915310475125178	-1.8182781256670137045
-4.84588346000012	0.8125194479604973541	-1.8147027657817686311
-4.810683542963581	0.8108373410833393802	-1.8111518441747490755
-4.775483625927043	0.80914521977548736764	-1.8076254191087747394
-4.740283708890503	0.8074430944414955347	-1.8041235478468239165
-4.705083791853964	0.8057309765359980114	-1.8006462866638332546
-4.669883874817424	0.80400887856850167257	-1.7971936908579799234
-4.6346839577808865	0.80227681410799078776	-1.7937658147616393369
-4.599484040744347	0.800534797787341601	-1.7903627117520235438
-4.564284123707807	0.7987828453075465074	-1.7869844342624180663
-4.529084206671268	0.7970209734417437186	-1.7836310337925154328
-4.493884289634728	0.7952492000390510851	-1.7803025609185879194
-4.45868437259819	0.7934675440281996339	-1.7769990653038579624
-4.423484455561651	0.79167602542096815466	-1.7737205957084048698
-4.388284538525111	0.78987466531541450365	-1.7704671999992705705
-4.353084621488572	0.78806348589890173884	-1.7672389251596670826
-4.317884704452034	0.7862425104509159768	-1.7640358172988305922
-4.282684787415494	0.7844117633456773042	-1.7608579216612633915
-4.247484870378955	0.782571270054539192	-1.7577052826359061395
-4.212284953342415	0.78072105714817352506	-1.7545779437650216748
-4.177085036305877	0.7788611522985431357	-1.7514759477532907612
-4.141885119269338	0.77699158428065606685	-1.7483993364761050906
-4.106685202232798	0.77511238297410323117	-1.7453481509886583249
-4.071485285196259	0.7732235793643762456	-1.7423224315338317722
-4.036285368159719	0.7713252055439621113	-1.7393222175505227875
-4.001085451123181	0.76941729471321751443	-1.7363475476819943931
-3.9658855340866417	0.76749988118101719614	-1.7333984597833812308
-3.930685617050102	0.7655730003651777249	-1.7304749909298413007
-3.8954857000135625	0.7636366887926535618	-1.7275771774238834385
-3.8602857829770247	0.7616909840995049752	-1.7247050548030494994
-3.825085865940485	0.75973592503063647197	-1.7218586578471462851
-3.7898859489039456	0.75777155143930607917	-1.7190380205855859665
-3.754686031867406	0.7557979042864004793	-1.7162431763041691086
-3.7194861148308664	0.75381502563947933027	-1.713474157552352595
-3.6842861977943286	0.7518229586715865498	-1.710730996149853483
-3.649086280757789	0.74982174765982456677	-1.7080137231930619167
-3.6138863637212495	0.7478114379836965364	-1.7053223690621648883
-3.57868644668471	0.74579207612321163356	-1.7026569634268895695
-3.543486529648172	0.7437637096567518702	-1.7000175352532385892
-3.5082866126116325	0.74172638725870587706	-1.697404112809244302
-3.473086695575093	0.7396801586968606568	-1.6948167236712435505
-3.4378867785385534	0.7376250748295597459	-1.692255394729598276
-3.4026868615020156	0.73556118760261890444	-1.6897201521944594225
-3.367486944465476	0.7334885500460063268	-1.6872110216014722628
-3.3322870274289365	0.73140721627028359997	-1.684728027817134141
-3.297087110392397	0.7293172414628052991	-1.6822711950442669539
-3.2618871933558573	0.72721868188368377073	-1.679840546827315556
-3.2266872763193195	0.72511159486151122167	-1.677436106057355999
-3.19148735928278	0.72299603878884488584	-1.675057894977134321
-3.156287442246242	0.7208720731174540486	-1.67270593518621805
-3.1210875252097026	0.71873975835332704065	-1.6703802476453489668
-3.085887608173163	0.71659915605144175466	-1.668080852681507615
-3.0506876911366234	0.7144503288102976857	-1.6658077699922168385
-3.015487774100084	0.7122933402662108282	-1.6635610186502021304
-2.9802878570635443	0.71012825508737342783	-1.6613406171075659912
-2.9450879400270047	0.7079551389676752571	-1.6591465832000629176
-2.909888022990465	0.7057740586202926325	-1.6569789341512841733
-2.8746881059539255	0.7035850817710406213	-1.6548376865765187761
-2.8394881889173895	0.7013882771514933223	-1.6527228564868476841
-2.80428827188085	0.699183714491870445	-1.6506344592928198509
-2.7690883548443104	0.69697146451369396125	-1.6485725098081795124
-2.733888437807771	0.69475159892221272084	-1.6465370222533957407
-2.6986885207712312	0.69252419039859813843	-1.6445280102592794613
-2.6634886037346917	0.6902893125919133954	-1.6425454868703277654
-2.628288686698152	0.6880470401108540468	-1.6405894645478696748
-2.5930887696616125	0.6857974485152643629	-1.6386599551734057018
-2.557888852625073	0.68354061430743018324	-1.6367569700516293654
-2.522688935588537	0.6812766149231491708	-1.6348805199134135274
-2.4874890185519973	0.6790055287225800207	-1.6330306149187512866
-2.4522891015154578	0.67672743498087517544	-1.631207264659469879
-2.417089184478918	0.6744424138785933831	-1.6294104781618774461
-2.3818892674423786	0.6721505464918989814	-1.6276402638895442581
-2.346689350405839	0.6698519147825483522	-1.6258966297456238223
-2.3114894333692995	0.6675466015876632131	-1.6241795830753006225
-2.27628951633276	0.66523469060929707464	-1.6224891306681696073
-2.2410895992962203	0.6629162664037929753	-1.6208252787603691441
-2.2058896822596843	0.6605914143709378239	-1.6191880330368173571
-2.1706897652231447	0.65826022074291279385	-1.6175773986330916538
-2.135489848186605	0.6559227725730453207	-1.6159933801374400425
-2.1002899311500656	0.6535791577243620365	-1.6144359815927115715
-2.065090014113526	0.6512294648579476375	-1.6129052064980529145
-2.0298900970769864	0.6488737834211104616	-1.6114010578104991725
-1.9946901800404468	0.64651220363535799596	-1.6099235379466712735
-1.9594902630039073	0.6441448164841862001	-1.6084726487842354888
-1.9242903459673713	0.6417717137006833106	-1.6070483916632912205
-1.8890904289308317	0.6393929877549519025	-1.6056507673877202125
-1.853890511894292	0.6370087318413539812	-1.6042797762263118818
-1.8186905948577525	0.63461903986557743895	-1.602935417914035425
-1.783490677821213	0.632224006431532648	-1.6016176916530738567
-1.7482907607846734	0.62982372682807719055	-1.6003265961136611061
-1.7130908437481338	0.6274182970155749439	-1.5990621294351496943
-1.6778909267115942	0.6250078136122924066	-1.5978242892266872779
-1.6426910096750547	0.62259237388063337626	-1.5966130725679268507
-1.6074910926385186	0.6201720757132186401	-1.5954284760097704868
-1.572291175601979	0.6177470176188103457	-1.5942704955746960672
-1.5370912585654395	0.61531729870808793414	-1.5931391267574505767
-1.5018913415289	0.6128830186792776358	-1.592034364525289777
-1.4666914244923603	0.61044427780363674785	-1.5909562033182675768
-1.4314915074558208	0.60800117691080157734	-1.5899046370495284484
-1.3962915904192812	0.60555381737399693876	-1.5888796591052624529
-1.3610916733827416	0.6031023010951147567	-1.587881262344936274
-1.325891756346202	0.6006467304896645487	-1.5869094391011747951
-1.290691839309666	0.5981872084715985638	-1.5859641811795716636
-1.2554919222731264	0.5957238384380151297	-1.5850454798585615944
-1.2202920052365869	0.59325672425374798014	-1.5841533258890940914
-1.1850920882000473	0.5907859702358388976	-1.5832877094942246776
-1.1498921711635077	0.58831168113790333063	-1.5824486203687868496
-1.1146922541269682	0.5858339621343905401	-1.5816360476787096804
-1.0794923370904286	0.5833529188047412717	-1.580849980060421414
-1.044292420053889	0.58086865711744961605	-1.5800904056202511747
-1.0090925030173494	0.5783812834140311665	-1.5793573119335229275
-0.9738925859808134	0.5758909043929019145	-1.5786506860437399708
-0.9386926689442738	0.5733976270931717689	-1.5779705144616310783
-0.9034927519077343	0.57090155887835913884	-1.5773167831641525979
-0.8682928348711947	0.5684028074200271341	-1.5766894775933282573
-0.8330929178346551	0.56590148068134771275	-1.5760885826550309918
-0.7978930007981155	0.56339768690059810474	-1.5755140827178023968
-0.762693083761576	0.5608915345745935088	-1.5749659616114434675
-0.7274931667250364	0.5583831324420596154	-1.5744442026255066337
-0.6922932496884968	0.5558725894669498402	-1.5739487885078904759
-0.6570933326519608	0.55336001482171282007	-1.5734797014631696551
-0.6218934156154212	0.55084551787051039273	-1.5730369231508972259
-0.5866934985788816	0.5483292081523974959	-1.5726204346839097828
-0.5514935815423421	0.54581119536446032203	-1.572230216626341866
-0.5162936645058025	0.54329158934492249866	-1.5718662489918039233
-0.4810937474692629	0.5407705000562224029	-1.571528511241367449
-0.44589383043272335	0.53824803756806516297	-1.5712169822813706407
-0.4106939133961838	0.5357243120404540093	-1.5709316404612947487
-0.3754939963596442	0.533199433706706416	-1.5706724635715077419
-0.3402940793231082	0.53067351285645825154	-1.5704394288409078511
-0.3050941622865686	0.52814665981866004696	-1.570232512934416702
-0.26989424525002903	0.525618984944572043	-1.5700516919505383535
-0.23469432821348946	0.52309059859075979215	-1.5698969414187648192
-0.19949441117694988	0.52056161110209586695	-1.5697682362968067802
-0.1642944941404103	0.5180321327947722265	-1.56966555096787828
-0.12909457710387073	0.51550227393932746	-1.569588859237762203
-0.09389466006733116	0.51297214474369257076	-1.5695381343320352021
-0.05869474303079514	0.51044185533626273976	-1.5695133488928724008
-0.023494825994255564	0.5079115157489921817	-1.5695144749758826011
0.01170509104228401	0.5053812359005271926	-1.5695414840471119622
0.046905008078823585	0.5028511255793715051	-1.5695943469796247957
0.08210492511536316	0.50032129442709472045	-1.5696730340500772987
0.11730484215190273	0.4977918519215844273	-1.5697775149353284395
0.1525047591884423	0.49526290736034983553	-1.5699077587089152671
0.18770467622498188	0.49273456984387747903	-1.5700637338372822333
0.22290459326152146	0.490206948259045594	-1.5702454081761178696
0.2581045102980575	0.48768015126260094716	-1.5704527489665619007
0.29330442733459705	0.48515428726470105625	-1.5706857228312809168
0.3285043443711366	0.48262946441252935204	-1.5709442957704127391
0.3637042614076762	0.48010579057398206082	-1.571228433157436125
0.3989041784442158	0.47758337332143546705	-1.5715380997351212503
0.43410409548075535	0.4750623199155966092	-1.5718732596112358165
0.4693040125172949	0.47254273728943996247	-1.5722338762539934204
0.5045039295538345	0.47002473203223443798	-1.5726199124877338609
0.5397038465903741	0.46750841037366708264	-1.5730313304883401409
0.5749037636269101	0.46499387816806381224	-1.5734680917786550444
0.6101036806634497	0.46248124087871411714	-1.5739301572235732316
0.6453035976999892	0.45997060356230107248	-1.5744174870253064554
0.6805035147365288	0.4574620708534436475	-1.5749300407184655334
0.7157034317730684	0.45495574694935020377	-1.5754677771649182342
0.750903348809608	0.45245173559459278545	-1.5760306545487977783
0.7861032658461475	0.44995014006600086987	-1.5766186303711176599
0.8213031828826871	0.4474510631576809616	-1.5772316614445407876
0.8565030999192267	0.44495460716616497265	-1.5778697038879928642
0.8917030169557627	0.44246087387569132954	-1.5785327131210409038
0.9269029339923023	0.43996996454361941842	-1.5792206438582480838
0.9621028510288419	0.43748197988598674923	-1.5799334501035323373
0.9973027680653814	0.4349970200632055639	-1.5806710851442948472
1.032502685101921	0.43251518466590682666	-1.5814335015455130013
1.0677026021384606	0.43003657270093287313	-1.5822206511436706239
1.1029025191750002	0.42756128257748221566	-1.5830324850406055572
1.1381024362115397	0.42508941209340977974	-1.5838689535972837786
1.1733023532480793	0.42262105842168579128	-1.5847300064274895927
1.2085022702846153	0.42015631809701664556	-1.5856155923913185912
1.243702187321155	0.41769528700262836818	-1.5865256595886020263
1.2789021043576945	0.41523806035722066188	-1.587460155352304208
1.314102021394234	0.4127847327020884305	-1.5884190262416826582
1.3493019384307736	0.41033539788841749685	-1.5894022180354116324
1.3845018554673132	0.407890149064755958	-1.5904096757246337738
1.4197017725038528	0.40544907866466423085	-1.5914413435057815704
1.4549016895403923	0.40301227839454523139	-1.5924971647733614855
1.490101606576932	0.40057983922165896207	-1.5935770821126862396
1.525301523613468	0.3981518513623229505	-1.5946810372924121936
1.5605014406500075	0.39572840427029998267	-1.5958089712569264007
1.595701357686547	0.39330958662537846005	-1.5969608241186989396
1.6309012747230867	0.39089548632214377033	-1.5981365351505438064
1.6661011917596262	0.38848619045894594581	-1.599336042777613621
1.7013011087961658	0.38608178532706344255	-1.6005592845694927621
1.7365010258327054	0.38368235640006792542	-1.6018061972319855696
1.771700942869245	0.38128798832338789415	-1.6030767165988131834
1.806900859905781	0.3788987649040776451	-1.6043707776233690344
1.8421007769423206	0.37651476910078895965	-1.6056883143701051562
1.8773006939788601	0.3741360830139520144	-1.6070292600059264906
1.9125006110153997	0.37176278787616201527	-1.6083935467914990253
1.9477005280519393	0.36939496404277766262	-1.609781106072341085
1.9829004450884788	0.3670326909827297257	-1.6111918682698196662
2.0181003621250184	0.3646760472695435018	-1.6126257628720773962
2.053300279161558	0.36232511057257488218	-1.61408271842477684
2.0885001961980976	0.35997995764846252298	-1.6155626625217050868
2.1237001132346336	0.35764066433279628754	-1.617065521795267177
2.158900030271173	0.35530730553200307043	-1.6185912219069300397
2.1940999473077127	0.35297995521545399988	-1.6201396875374264117
2.2292998643442523	0.35065868640778879994	-1.6217108423768587984
2.264499781380792	0.34834357118146275223	-1.6233046091147118631
2.2996996984173315	0.3460346806495148697	-1.6249209094296491553
2.334899615453871	0.34373208495855850364	-1.6265596639793020566
2.3700995324904106	0.34143585328199582696	-1.6282207923898494643
2.40529944952695	0.33914605381345547253	-1.6299042132454036752
2.440499366563486	0.33686275376045499153	-1.6316098440774075044
2.475699283600026	0.33458601933828741037	-1.6333376013537566292
2.5108992006365654	0.3323159157641346062	-1.6350874004678645233
2.546099117673105	0.33005250725140472534	-1.6368591557275651023
2.5812990347096445	0.32779585700429586526	-1.6386527803438823096
2.616498951746184	0.32554602721258618647	-1.6404681864196916228
2.6516988687827237	0.32330307904664967733	-1.642305284938116226
2.6868987858192632	0.3210670726526977381	-1.6441639857509485889
2.722098702855803	0.31883806714824763917	-1.646044197566866189
2.757298619892339	0.31661612061781635452	-1.6479458279394222367
2.7924985369288784	0.31440129010883915983	-1.6498687832549891781
2.827698453965418	0.31219363162781599286	-1.6518129687206051949
2.8628983710019575	0.30999320013668096863	-1.6537782883515131709
2.898098288038497	0.3078000495493967703	-1.6557646449586459701
2.9332982050750367	0.30561423272877386026	-1.6577719401360443428
2.9684981221115763	0.3034358014835130124	-1.6598000742479971855
3.003698039148116	0.3012648065654707219	-1.6618489464160336708
3.0388979561846554	0.29910129766714660393	-1.6639184545059082412
3.0740978732211914	0.29694532341939344766	-1.6660084951143258599
3.109297790257731	0.29479693138934570662	-1.6681189635554799946
3.1444977072942706	0.2926561680785706998	-1.6702497538475792684
3.17969762433081	0.29052307892143608425	-1.6724007586990651822
3.2148975413673497	0.288397708283695986	-1.6745718694948614945
3.2500974584038893	0.28628009946129440166	-1.6767629762823019766
3.285297375440429	0.2841702946793827067	-1.6789739677569019128
3.3204972924769685	0.28206833509155221362	-1.6812047312482260613
3.355697209513508	0.27997426077928005972	-1.6834551527052844973
3.390897126550044	0.27788811075158542652	-1.685725116681954061
3.4260970435865836	0.27580992294489647954	-1.6880145063222746672
3.461296960623123	0.27373973422312691817	-1.6903232033454005734
3.4964968776596628	0.27167758037795763926	-1.692651088030680377
3.5316967946962023	0.26962349612932595688	-1.6949980392022948259
3.566896711732742	0.26757751512611643863	-1.6973639342139184769
3.6020966287692815	0.26553966994705613391	-1.6997486489332886608
3.637296545805821	0.26350999210180853227	-1.7021520577263073953
3.672496462842357	0.26148851203226636253	-1.7045740334413622253
3.7076963798788967	0.2594752591140409015	-1.7070144473933094197
3.7428962969154362	0.25747026165814695942	-1.7094731693472566761
3.778096213951976	0.2554735469128789349	-1.7119500675022834109
3.8132961309885154	0.25348514106587827222	-1.7144450084750126891
3.848496048025055	0.25150506924638960093	-1.7169578572829956014
3.8836959650615945	0.24953335552770281036	-1.7194884773278859286
3.918895882098134	0.24757002292977928204	-1.722036730378592358
3.9540957991346737	0.24561509342206047646	-1.7246024765541843386
3.9892957161712097	0.24366858792645570975	-1.7271855743066686739
4.024495633207749	0.2417305263205067889	-1.7297858804036328202
4.059695550244289	0.23980092744072908917	-1.7324032499106666852
4.094895467280828	0.23787980908612307851	-1.7350375361737893032
4.130095384317368	0.2359671880218575657	-1.7376885908015829424
4.165295301353908	0.23406307998311914886	-1.74035626364718948
4.200495218390447	0.23216749967912744812	-1.7430404027902610414
4.235695135426987	0.23028046079731223639	-1.7457408545186393155
4.270895052463526	0.22840197600765033137	-1.7484574633100376891
4.306094969500062	0.22653205696716022244	-1.7511900718134153264
4.341294886536602	0.22467071432454907565	-1.7539385208303256957
4.3764948035731415	0.22281795772501455932	-1.7567026492961187394
4.411694720609681	0.2209737958151924142	-1.7594822942609169578
4.446894637646221	0.21913823624825193304	-1.7622772908705608704
4.48209455468276	0.21731128568913382626	-1.7650874723473616942
4.5172944717193	0.21549294981992903053	-1.7679126699707231212
4.552494388755839	0.21368323334539435221	-1.7707527130576694155
4.587694305792379	0.2118821399986034748	-1.7736074289432017661
4.622894222828915	0.21008967254672886171	-1.776476642960506998
4.6580941398654545	0.20830583279695205623	-1.7793601784211542103
4.693294056901994	0.20653062160250129642	-1.782257856595049906
4.728493973938534	0.20476403886880975569	-1.7851694966903239577
4.763693890975073	0.20300608355979457564	-1.7880949158331088627
4.798893808011613	0.20125675370425202826	-1.7910339290471670162
4.834093725048152	0.19951604640236622612	-1.7939863492334792574
4.869293642084692	0.19778395783232838312	-1.7969519871496552601
4.9044935591212315	0.19606048325706298963	-1.799930651389267023
4.9396934761577675	0.19434561703105862618	-1.8029221483610689009
4.974893393194307	0.19263935260729844745	-1.8059262822681625748
5.010093310230847	0.19094168254429086384	-1.8089428550870596126
5.045293227267386	0.18925259851319251037	-1.8119716665465917432
5.080493144303926	0.1875720913050239469	-1.8150125141068074263
5.115693061340465	0.18590015083797314932	-1.8180651929377992027
5.150892978377005	0.18423676616478454338	-1.8211294958983835848
5.186092895413545	0.18258192548022916801	-1.8242052135147439155
5.221292812450081	0.18093561612865430299	-1.8272921339590843178
5.25649272948662	0.17929782461160734264	-1.8303900430280874508
5.29169264652316	0.17766853659553347167	-1.8334987241214186252
5.326892563559699	0.17604773691954073156	-1.8366179582201432929
5.362092480596239	0.17443540960323147826	-1.8397475238651138151
5.3972923976327785	0.17283153785459623442	-1.8428871971353042446
5.432492314669318	0.17123610407796654997	-1.8460367516261203094
5.467692231705858	0.16964908988202395679	-1.8491959584277221115
5.502892148742397	0.16807047608786163106	-1.8523645861032580828
5.538092065778933	0.16650024273709543299	-1.8555424006671410214
5.573291982815473	0.16493836910002063201	-1.8587291655632852236
5.608491899852012	0.16338483368381281902	-1.8619246416434097757
5.643691816888552	0.16183961424076745428	-1.86512858714528541
5.6788917339250915	0.16030268777657608048	-1.8683407576710098323
5.714091650961631	0.15877403055863612003	-1.8715609061653713153
5.749291567998171	0.1572536181243904263	-1.8747887828941649527
5.78449148503471	0.15574142528969370236	-1.8780241354226046023
5.81969140207125	0.15423742615720251181	-1.8812667085937690941
5.854891319107786	0.15274159412478580111	-1.8845162445071674494
5.890091236144325	0.1512539018939521307	-1.8877724824972761821
5.925291153180865	0.14977432147829194964	-1.8910351591121931305
5.9604910702174045	0.148302824211929557	-1.8943040080924389788
5.995690987253944	0.14683938075798338985	-1.8975787603498423975
6.030890904290484	0.14538396111703089097	-1.9008591439464816349
6.066090821327023	0.14393653463557440353	-1.9041448840737959903
6.101290738363563	0.14249707001450576116	-1.9074357030318189562
6.136490655400102	0.1410655353175656046	-1.9107313202085658083
6.171690572436638	0.13964189797979537078	-1.914031452059603371
6.206890489473178	0.13822612481597720824	-1.9173358120877454436
6.242090406509718	0.13681818202906154136	-1.9206441108229384328
6.277290323546257	0.13541803521857567749	-1.9239560558023844884
6.312490240582797	0.1340256493890135403	-1.9272713515508472895
6.347690157619336	0.13264098895820150559	-1.9305896995611333614
6.382890074655876	0.13126401776563842438	-1.9339107982749201722
6.4180899916924155	0.12989469908080641947	-1.9372343430637848598
6.453289908728955	0.12853299561144967966	-1.9405600262104260236
6.488489825765491	0.12717886951181792132	-1.9438875368902304691
6.523689742802031	0.12583228239087157485	-1.9472165611532156297
6.55888965983857	0.124493195320447433416	-1.9505467819061334662
6.59408957687511	0.12316156884337878252	-1.9538778788949676843
6.629289493911649	0.12183736298156992717	-1.9572095286878567746
6.664489410948189	0.12052053724402102264	-1.9605414046582216792
6.6996893279847285	0.11921105063480025299	-1.9638731769683636326
6.734889245021268	0.11790886166096122001	-1.9672045125534730254
6.770089162057808	0.116613928340402142614	-1.9705350751060183705
6.805289079094344	0.11532620820966468789	-1.9738645250605559129
6.840488996130883	0.1140456583316683814	-1.9771925195789914609
6.875688913167423	0.112772235303380388705	-1.9805187125363817491
6.910888830203962	0.11150589526341501967	-1.9838427545071012979
6.946088747240502	0.11024659389956209532	-1.9871642927516006313
6.9812886642770415	0.10899428645624116563	-1.9904829712036931938
7.016488581313581	0.1077489277418786362	-1.9937984304583384604
7.051688498350121	0.10651047213620537524	-1.9971103077600478828
7.086888415386657	0.105278873597472344414	-2.0004182369918352478
7.122088332423196	0.10405408566958068706	-2.0037218486647999176
7.157288249459736	0.102836061489125926705	-2.0070207699083608124
7.192488166496275	0.10162475379235089146	-2.0103146244610927966
7.227688083532815	0.100420114922006892266	-2.013603032662282973
7.262888000569355	0.09922209683411983838	-2.0168856114441756926
7.298087917605894	0.098030651104658944606	-2.02016197432493828
7.333287834642434	0.09684572893610551847	-2.0234317314023505363
7.368487751678973	0.09566728116391931547	-2.0266944893483000477
7.403687668715509	0.09449525826290033903	-2.029949851404053804
7.438887585752049	0.09332961035344267131	-2.0331974173763304346
7.4740875027885885	0.092170287207679946206	-2.0364367836342442666
7.509287419825128	0.091017238255517524115	-2.0396675431070849798
7.544487336861668	0.089870412590550882714	-2.042889285283018268
7.579687253898207	0.088729758975867115134	-2.0461015962086679682
7.614887170934747	0.087595225849727217926	-2.0493040584896725978
7.650087087971286	0.08646676133112704554	-2.0524962512922045458
7.685287005007826	0.085344313225234377795	-2.0556777503454478709
7.720486922044362	0.084227829028700004765	-2.0588481279451365505
7.7556868390809015	0.08311725593483990093	-2.0620069529581287835
7.790886756117441	0.082012540838687836287	-2.0651537908280233548
7.826086673153981	0.080913630341913789223	-2.068288203581936211
7.86128659019052	0.07982047075760796695	-2.07140974983834035
7.89648650722706	0.078733008114926852916	-2.074517984816056724
7.931686424263599	0.077651188163599796366	-2.0776124603445193617
7.966886341300139	0.076574956378293590475	-2.080692724875098996
8.002086258336679	0.07550425796283256885	-2.0837583234937796114
8.037286175373215	0.074439037854272763206	-2.0868087979350734903
8.072486092409754	0.07337924072682648624	-2.0898436865971373527
8.107686009446294	0.07232481099563720095	-2.0928625245583141103
8.142885926482833	0.07127569282040017995	-2.0958648435949677994
8.178085843519373	0.07023183010882833033	-2.0988501722006594002
8.213285760555912	0.06919316651996020029	-2.1018180356067734374
8.248485677592452	0.06815964546730836349	-2.1047679558045263603
8.283685594628992	0.06713121012184548875	-2.1076994515684109015
8.318885511665531	0.0661078034148262772	-2.110612038481188552
8.354085428702067	0.06508936804044296309	-2.1135052289602672439
8.389285345738607	0.06407584645831126968	-2.1163785322857128655
8.424485262775146	0.063067180895786736916	-2.1192314546297583307
8.459685179811686	0.062063313350106237565	-2.1220634990878756217
8.494885096848225	0.06106418559035479282	-2.1248741657114892868
8.530085013884765	0.060069739159254037508	-2.127662951542285998
8.565284930921305	0.05907991537477077365	-2.1304293506482080195
8.600484847957844	0.058094655331542753574	-2.1331728541610555062
8.635684764994384	0.057113899902119666385	-2.1358929503158562532
8.67088468203092	0.056137589738016982488	-2.1385891244919260044
8.70608459906746	0.05516566527057965852	-2.141260859255634308
8.741284516103999	0.05419806671165469658	-2.1439076344049816485
8.776484433140538	0.053234734054068359732	-2.146528927015961169
8.811684350177078	0.052275607071906891876	-2.1491242114906727982
8.846884267213618	0.051320625320597647312	-2.1516929596072866435
8.882084184250157	0.050369728136788319284	-2.1542346405718599835
8.917284101286697	0.049422854638021644635	-2.1567487210719930356
8.952484018323233	0.048479943722203100442	-2.1592346653323604764
8.987683935359772	0.047540934066858386853	-2.1616919351721324723
9.022883852396312	0.04660576412817948183	-2.164119990064297256
9.058083769432852	0.04567437213985459793	-2.1665182871969064613
9.093283686469391	0.04474669611168081984	-2.1688862815362371364
9.12848360350593	0.043822673827955890835	-2.1712234258919046659
9.16368352054247	0.04290224284564659457	-2.1735291709839351913
9.19888343757901	0.041985340492330658346	-2.175802965511770028
9.23408335461555	0.041071903863909312027	-2.1780442562252671208
9.269283271652085	0.040161869822087588322	-2.180252487997649191
9.304483188688625	0.03925517499161865209	-2.1824271039004549267
9.339683105725165	0.03835175575731058356	-2.1845675452804551168
9.374883022761704	0.037451548260790328004	-2.1866732518385551534
9.410082939798244	0.036554488397023209012	-2.1887436617106869692
9.445282856834783	0.03566051181058383507	-2.1907782115506785976
9.480482773871323	0.034769553891675353263	-2.1927763366151290893
9.515682690907862	0.033881549771893365586	-2.194737470850202773
9.550882607944402	0.032996434319730968965	-2.1966610469804516957
9.586082524980938	0.03211414213582150512	-2.198546496599587004
9.621282442017478	0.031234607547914558512	-2.2003932502631739516
9.656482359054017	0.030357764605582825829	-2.2022007375833141777
9.691682276090557	0.029483547074654160164	-2.2039683873252113118
9.726882193127096	0.028611888431365990054	-2.2056956275056744039
9.762082110163636	0.027742721856237641254	-2.20738188549354014
9.797282027200175	0.026875980227656318111	-2.2090265881119231894
9.832481944236715	0.02601159611517237999	-2.21062916174235425
9.867681861273255	0.02514950177249959673	-2.2121890324307506184
9.90288177830979	0.024289629130215782682	-2.2137056259951821131
9.93808169534633	0.023431909788158698793	-2.2151783681354299406
9.97328161238287	0.022576275007513673526	-2.216606684544299832
10.00848152941941	0.021722655702586315951	-2.217990001020635959
10.043681446455949	0.020870982432256473399	-2.2193277435840353634
10.078881363492489	0.020021185391107823581	-2.2206193385912230851
10.114081280529028	0.019173194400227758227	-2.2218642128540130203
10.149281197565568	0.018326938897672069573	-2.2230617937588607125
10.184481114602107	0.017482347928588843483	-2.2242115093879447519
10.219681031638643	0.016639350134995786051	-2.2253127886417244665
10.254880948675183	0.015797873745204533968	-2.2263650613629320674
10.290080865711722	0.014957846562887056746	-2.2273677584619624183
10.325280782748262	0.014119195955776190146	-2.2283203120436032426
10.360480699784802	0.013281848843995058482	-2.229222155535028919
10.395680616821341	0.012445731688008171076	-2.2300727238150363735
10.43088053385788	0.011610770476187489905	-2.2308714533444456729
10.46608045089442	0.010776890711986319635	-2.2316177822976001322
10.50128036793096	0.009944017400713819205	-2.2323111506949227531
10.536480284967496	0.009112075035902712089	-2.232951000536445069
10.571680202004035	0.0082809875852620108	-2.2335367759362496909
10.606880119040575	0.0074506784762080951676	-2.2340679232577577845
10.642080036077115	0.0066210705809643258593	-2.2345438912497860428
10.677279953113654	0.005792086201222064294	-2.234964131183302627
10.712479870150194	0.0049636470523539725705	-2.2353280969888111637
10.747679787186733	0.0041356742471708105024	-2.2356352453942768136
10.782879704223273	0.0033080882792125695588	-2.2358850360635195151
10.818079621259809	0.0024808090055646451512	-2.2360769317349932915
10.853279538296349	0.0016537556291888427622	-2.2362103983608703727
10.888479455332888	0.00082684668076053247695	-2.2362849052463454264
10.923679372369428	0.0	-2.2363073524920506485
